2330 64
CL:0002638 0.48424557 -0.39478296 1.1932564 2.0412633 -1.8863266 -1.0276295 1.7253841 0.35853648 0.29893994 -1.2482717 0.8818654 -0.08680954 -0.67661136 0.67751265 0.35243005 0.80435973 0.35957062 -0.81655043 -1.6578461 -0.7335254 0.5064133 1.6285167 1.2474619 -0.16448611 1.2172962 0.58064306 0.7097991 0.8899256 -0.40283015 -1.0895135 -0.7349304 -0.5487639 0.5202695 -1.6247282 -1.6013504 0.14229296 1.2140552 -0.03775269 1.4072088 -0.6792879 -1.4310658 1.2062186 0.34943828 -0.57926226 0.40843576 0.20277338 -0.87123585 1.281449 0.9580926 0.32428342 0.24779952 1.0022134 -0.09424293 0.8133356 0.10536019 -0.6678429 0.30935618 -0.5483571 -1.2383271 1.0997338 -0.5143677 0.18733743 -0.040844977 -0.07128285
CL:0002604 1.0687435 -0.21096845 1.3104817 0.7186168 -0.7911217 -0.8958498 1.3388067 1.0368826 -0.40702543 -0.8827572 1.3650076 -0.13846911 0.44334728 -0.34314564 0.22394048 -0.40599835 -0.51525486 0.23366243 0.3145858 1.1481651 0.091178715 1.5751392 0.59071434 -1.6401517 -0.62264806 1.677635 -0.19782484 0.81410563 0.36414945 0.10471658 0.37886557 0.25702727 -0.6295701 -2.144498 -0.41482872 0.98649687 -0.2717022 0.85107464 0.9273616 0.50991416 0.53177667 0.00581192 -0.13456568 0.8931566 0.22536407 -0.5300077 -0.49668545 -0.37603757 -0.41494223 1.0916818 0.7821489 1.0674537 0.6874556 1.3030319 -0.69892204 -0.035194535 1.0186106 -0.98949134 -0.10410541 -0.5607994 0.056051563 -0.13814722 -0.44405586 -0.16380233
CL:1001005 0.53912383 0.02386973 0.85925865 -0.59514296 -0.71641153 -0.85809916 0.5199749 0.1099534 0.39071348 -0.15441199 1.4347566 0.26093352 0.2827228 -1.2928642 -0.40124953 0.29241315 -1.1934296 -0.1052045 -0.17880294 1.0942405 1.336208 1.1381267 -0.16746405 -1.5302721 -0.68147165 0.5012146 -0.49925596 0.82718396 0.7712551 0.586721 -0.068925224 0.21453218 -0.31731322 -0.2104986 -0.77802545 0.4477036 1.2006903 0.23045851 0.45728248 -0.5325139 0.75597346 1.5178522 -0.3270291 -0.4762848 0.83915144 1.0290835 0.09155231 -0.9260041 0.08717392 0.07000898 0.9341832 -0.26649907 -0.471723 0.9800613 -0.1553257 -0.998799 0.28377032 -1.41959 -0.9240067 -0.67227495 0.004547658 -0.8206295 0.037364163 -0.7953749
CL:1001097 0.5826094 -0.99274963 -0.10475719 0.3232484 -0.17865402 -1.1167865 -0.8011214 0.7744331 -0.50996006 -0.08160624 0.55983 -0.18259703 0.40013352 -0.34069264 -0.34122026 0.6567723 -1.0612807 -0.25352538 -0.5606517 0.37408486 1.4676033 0.18936844 0.65292096 -1.2006772 0.20637466 1.7262131 -0.66342455 -0.56465954 -0.28189933 -0.80011785 -0.5039352 -0.78534985 0.6068008 -1.0021594 -0.09901475 1.7195605 0.4583515 0.14461787 0.6076396 -0.8612363 -0.27717322 0.8601746 -1.3217645 -0.35112676 1.167024 0.09453953 -0.57238877 -0.6077891 0.22446741 0.8239551 0.63370997 0.7137107 0.61563 1.1000055 -0.5853916 -0.32518473 -0.014217387 -0.93263584 -0.46366012 0.6272019 -0.9392392 -0.77069014 -0.11982844 -0.9312145
CL:0000748 0.7021063 -0.60012895 0.3893375 -0.062766194 0.6933425 -0.8037699 0.44022468 0.49340272 -1.1396283 0.271662 1.7260273 0.43872145 -0.33216688 0.26878285 0.12761231 1.3439333 0.18364862 0.37874845 -0.44721052 1.6896442 1.6019548 1.5338228 -0.46224186 -1.5728214 -0.52929586 0.20206147 -0.51144624 0.07700766 0.7484605 -0.8980799 0.030354002 -0.3867357 -0.15472868 -0.42215362 -0.3552059 1.7041118 0.8854697 -1.2809105 1.0661802 0.6474649 -0.08315203 0.12957145 0.38494962 -0.28520432 0.040348124 0.2891356 -0.52115506 -0.8861061 1.0222598 0.63368946 -0.056182656 0.12012749 0.08230943 -0.101971015 0.10710359 -0.63774943 -0.6051102 -1.3031578 0.055893138 -0.048801143 -0.3444811 0.1829241 -0.0631184 -0.33479765
CL:1000352 0.6304524 -0.3078868 1.1089746 1.8832741 -1.7884881 -0.75825155 1.6067343 0.07078238 0.38073018 -1.1649479 0.7569521 -0.27751717 -0.8183832 0.6495034 0.6938415 1.0661914 0.45011076 -1.1324997 -1.4728228 -0.30468118 0.13834184 1.6867764 1.1931213 -0.06146561 1.2494833 0.71365964 0.6276014 0.73818254 -0.24737027 -0.78873926 -0.474369 -0.33331868 -0.043534305 -1.7459564 -1.8953938 0.16373086 0.8177891 0.31275302 1.3711667 -0.3307401 -1.1977717 1.1077076 0.85033786 -0.56106293 0.44339687 0.21182875 -0.6436605 1.2685142 0.9519614 0.021398064 0.33905324 0.7499743 0.0020336427 0.9769057 -0.14938018 -0.68801165 -0.14459647 -0.18444073 -1.0729052 1.1451292 -0.5265798 0.09501023 0.20742449 0.25086388
CL:0002475 0.6859313 -0.50478405 1.3593099 0.57611394 0.35806125 -1.4185466 -0.43143106 -0.1028402 -0.7301863 -1.2671784 1.8595384 -0.9062216 -0.011446065 -0.75681007 0.10768477 0.30052075 -0.82427835 0.111798815 -0.15939248 1.379937 0.6561656 1.7842731 -0.017279193 -0.05576016 -0.47597033 1.456524 -0.47669032 1.079657 -0.5191338 0.37562203 0.07846797 0.23454998 0.11228606 -0.41706234 1.2629871 0.18192132 0.09195612 -1.0398145 0.6055287 1.0400184 -0.81689626 -0.12475276 -0.026676578 -0.1529703 -0.30571482 0.22074555 0.2889516 -0.48542535 0.6786062 -0.18622416 0.9302007 -0.22121379 -0.43063402 0.6560858 -0.3411388 -0.5456605 0.38681495 -1.287395 -1.5250809 1.2997772 -0.5812329 -0.2986843 0.07445344 0.057304498
CL:0002058 0.8730574 -0.55456316 1.0384417 0.9835127 0.74208117 -1.2867544 -0.06927409 -0.44445178 -0.91178644 -1.4886496 1.5562454 -1.5526779 0.5493886 -1.2627003 0.2118758 0.54957706 -0.7384447 -0.31792212 0.28589085 1.7314739 0.4861337 2.2367842 -0.6141041 0.00781029 -0.0014825333 1.7415925 -0.17785664 1.2708929 -0.800885 0.36423293 0.81561446 -0.31731883 -0.0786338 -0.868218 0.77597994 0.61766297 -0.37727875 -0.70764595 0.47083607 0.22066459 -1.4451082 -0.30959442 -0.017547254 -0.23985013 0.0024511279 -0.22012508 0.15664117 -0.67444444 0.9422605 0.2947488 1.0687689 0.6926834 -0.032599613 0.4827317 -0.4348771 -0.49592805 -0.2799137 -0.8122269 -1.2113376 1.4154189 -1.0763024 -0.30596292 -0.07723378 -0.04210548
CL:1001096 0.32431898 -0.9360686 -0.027376331 -0.51860493 -0.550286 -1.0972444 -0.60957897 0.58451396 -1.0482024 -0.6352314 1.3023194 0.35224816 -0.6114243 -1.0184071 -0.107292786 0.26574633 -0.7495122 -0.30879372 0.3277512 0.22995026 1.2447927 -0.057096876 0.045792345 -0.78613585 0.042282224 1.0201216 -0.670091 -0.23913474 0.36195445 -0.6263983 -0.45063275 -0.33431953 0.20636483 -0.9754294 -0.020404043 1.4352357 0.63348633 0.13167983 0.5777972 -0.35692197 0.16482018 1.1495664 -1.3118892 -0.37397328 1.0977073 0.0059463596 -0.86896694 -1.180273 0.66583264 0.8060956 0.98601234 -0.119994685 0.5088585 0.8469063 -0.26950946 -0.23245594 -0.07536322 -1.2631215 -0.6691983 0.92082924 -0.35043222 -0.09035761 -0.17769596 -0.49358723
CL:0002206 0.66602683 0.48277742 1.0238916 0.7899731 0.0605774 -1.3579462 1.3020492 -0.35161334 0.33878657 -1.4088627 0.9294755 0.6213987 -0.47928682 0.22701295 1.102434 1.5040659 -0.3836456 -1.0213412 0.119314775 0.76802933 0.8141304 0.058018047 0.3870463 -1.3777466 0.34320047 0.070219 0.10492343 0.3604211 -0.12312007 -0.5684077 0.5401381 -0.23637591 -0.4012916 -1.7713536 -0.3188633 0.78063005 0.13213478 0.35278574 0.3395224 0.03594828 -0.4731298 1.4831864 0.06021863 -1.0838647 0.0227586 0.036673658 -0.25553712 0.04769021 0.6090273 0.8290946 -0.22935228 1.0425202 -0.06832864 0.9925251 0.6586379 0.15679267 0.021085344 0.43249422 -1.2243581 0.8819886 -0.5751805 -0.49244767 -0.14216298 -0.8071608
CL:0000218 1.2987944 -1.0539559 1.5480217 0.08863839 -0.041537125 -0.26723102 0.23952384 -0.324612 -0.5375981 -1.0034591 1.2713033 -0.49799937 -0.75941277 -0.03285745 -0.024433283 -0.47606462 -0.67732793 -0.9366335 -1.3576449 -0.22795554 0.7163754 0.6175343 0.550945 -1.0523529 -0.25959906 1.6187402 -0.63213664 0.5202976 -0.54054266 -0.47637323 -0.48849523 0.43307993 0.08839445 -0.289006 -0.122614585 -0.34300673 0.87460685 0.9546103 0.6772079 0.36800763 -0.013528493 -0.14217818 -0.23042978 0.57259476 -0.0007905129 -0.053620186 0.2820909 -0.053429868 -0.5112113 0.7758503 0.12109629 0.85753 -0.34153044 0.29529428 -0.024334593 0.25955197 0.35003337 -0.7632883 -0.36099926 1.3464365 0.53354657 -0.378909 0.92988145 0.4500953
CL:0002140 0.6376522 -0.7277057 1.091068 0.083634965 -0.8876006 -1.167504 0.061737936 0.6750742 0.12034456 -0.19239382 1.0855856 -0.20347196 -0.175227 -0.4770398 -0.6147743 -0.29251373 -0.31277996 0.08056604 -0.342138 0.06369739 0.5305882 1.5270418 -0.26357007 -0.015655674 -0.76674324 1.2056669 -0.5556081 0.49736392 -0.05589012 -0.89463127 -0.6461691 -0.0066426834 -0.20269565 -0.6696696 -0.7897625 0.30179048 1.3466374 0.008705799 -0.08419915 -0.09228009 0.695996 0.09557219 -0.25189203 0.2558474 0.7783308 0.024204614 -0.8857686 -0.15361595 1.3611788 0.00503091 -0.27069223 1.0111654 -0.679475 0.24790491 -0.04067235 0.4519589 0.7139234 -0.58650005 -0.9633288 1.2662578 -0.4784211 0.86205286 -0.5094317 0.38427866
CL:1000332 0.31196746 -0.38214347 0.7030051 -0.22390233 0.024661938 -1.2229737 0.25905526 0.4167399 0.5754177 -0.7137273 1.5359011 -0.9276758 -0.7607195 -0.06495613 -0.2246995 0.79219455 -0.40923414 -0.59022516 -0.39317778 1.043002 0.86468494 0.5491922 0.6833077 -1.2742512 -0.724168 0.5757491 -0.19990733 0.45692408 -0.17968744 -0.27902275 0.7951162 -0.52717453 -1.0077032 0.03367021 0.08708582 1.2359658 1.2360857 0.6679418 1.6628084 0.0028432184 -0.80442065 0.5860975 0.50799865 -0.19206585 0.8886134 0.3800571 0.6464687 0.19603948 -0.2885864 0.44880757 -0.28576946 0.15815105 0.099075 1.1280615 0.34468737 -0.22548851 0.53720534 -0.7342683 -1.171658 0.014148662 0.043005552 -0.4810759 0.26830125 -0.33983743
CL:0008010 0.9225602 -0.11868709 0.6244362 0.9188359 -0.744673 -0.34075877 1.1533982 -0.65472573 -0.78602093 -0.12635115 0.91503364 -0.055796526 -0.34713078 -0.19558977 0.005235049 1.2351186 -0.7587941 -0.6370831 -0.37690887 0.79086155 0.6270622 0.67630035 0.4106185 -0.7730469 0.52102476 0.88684314 0.37543297 -0.67409945 0.036547527 -1.1272159 1.0283713 -0.13686715 -0.7648253 -0.5923296 -0.5356691 1.0189006 -0.36903316 0.42680004 -0.2697153 0.57018197 0.38726577 1.0345272 0.0576794 -0.6259917 -0.3397156 -0.08108324 -0.9689007 -0.3920331 0.7340876 0.13842238 0.9315733 0.63149256 0.74981797 0.74871826 -0.28940538 -1.113292 0.03483125 -0.34157696 -0.9236078 0.13581742 -0.37998602 0.046791334 0.80128884 0.5853902
CL:0000584 0.9356313 0.12508377 0.9467056 -0.17202733 -1.6840352 -1.575491 -0.3769804 0.94938755 -0.663448 -1.0614698 1.2694306 0.28525648 -0.38557628 -0.85145277 0.049586963 1.0297636 -0.1736572 -0.37541702 0.4523071 0.8311632 1.1014218 0.6368835 0.29803738 -1.2076095 0.35992163 1.0350114 -0.8656339 -0.08538661 0.37395224 -0.25453803 -0.71502084 1.199807 0.30529577 -0.6606018 0.5961204 0.50203186 0.55394894 0.9237975 -0.10626719 1.2631019 -0.960783 0.97949183 0.5776591 0.7858104 0.39657488 0.1337485 -0.8975974 0.14504863 -0.50836605 0.72494906 -0.4686803 0.8522652 -0.61651516 0.8392501 0.57543486 -0.27424204 -0.061063975 -0.1427482 -0.8475625 0.24565181 -0.2880715 0.12298545 0.75383914 -0.2506159
CL:0002636 0.30311704 -0.19250587 1.3684187 0.7535618 -0.96845883 -1.4621642 0.24369098 -0.06828266 -0.5489204 -1.1846975 1.0452688 0.22885743 -0.58053637 -1.314777 0.32078463 0.017593505 -0.3994444 -0.7408135 0.46860042 0.46143597 0.8715355 1.1675272 0.44347927 -0.31025732 0.007885785 0.24929948 -0.65181726 0.5098913 0.77217877 0.006521303 -1.1592284 0.28973523 0.49432784 -0.109984584 0.49671352 -0.053473357 0.20024158 0.36542934 1.256683 0.3451801 0.28221443 0.31810722 0.73917514 -0.37324575 0.024351211 -0.3110539 -1.0068388 0.4210258 0.051371735 -0.21491207 0.7975845 0.019716471 0.7754874 0.24242572 0.56370926 0.19414452 -0.1250758 -1.051282 -0.5957426 0.019911682 -0.8548653 -0.006448978 0.86804056 -0.39286727
CL:0002123 -0.02506611 0.017618872 0.79365075 0.715643 0.34795648 -1.5798409 -0.007838884 0.5836887 -0.033828985 0.5615152 1.6369858 -0.33442974 -0.039605025 -0.15424685 -0.10044366 0.7115842 -1.0810323 -0.22383466 -0.24256255 1.4823095 0.06034107 0.5634396 -0.12932111 -0.93646955 -0.05948609 1.3467844 -0.4966937 -0.081448026 0.047171805 -0.22289027 -0.021848153 -0.03746367 -0.51022243 -1.1300346 -0.24215966 0.3662241 0.27675268 0.15730809 0.39166743 0.3434257 -0.749992 0.882335 -0.37180665 0.0041094357 0.8410732 0.4259764 -0.25308317 1.337475 -0.11584567 0.84237856 0.52993935 1.2937603 1.0411211 -0.10818368 -0.9450832 -0.28920096 -0.08308186 0.024560848 -0.28439304 1.3039762 -0.8941485 0.26766568 -0.6757135 -0.13976258
CL:2000033 0.89307576 0.58888173 0.8078509 0.9414404 -0.49214688 -0.89119023 -0.13534172 0.04016465 0.011031466 -1.0709375 1.6590854 -0.8830182 0.7295984 0.31402177 -0.09885717 0.5476174 -0.29477945 -0.80431813 0.026642207 0.44054934 0.40093395 1.0790579 0.5319963 -0.91647875 0.13481784 0.12155804 0.47088623 -0.4576319 -0.29739177 -0.3038666 -0.8882177 -0.11680294 0.41083664 -2.006015 -0.32036006 -0.08165117 -0.3705883 -0.5434198 0.82560813 0.6942756 -0.28978926 0.3765279 -0.40564206 -0.20119858 0.7405787 -0.15045677 -0.25808936 -0.42484862 0.3792161 0.54784924 -0.53981453 0.050888248 -0.48300925 0.7009421 -0.038126107 -0.12048332 -0.7221692 -1.3751677 -0.4289836 1.1884147 -0.66802776 0.9605337 0.027301708 -0.25451946
CL:0000653 0.5080459 -0.19786212 0.31840697 0.23512504 -0.2289979 -0.6133764 0.35178494 0.18793115 -0.821441 -0.09832993 0.9976804 -0.5603172 -0.038640466 -0.26301804 0.48759335 1.2029626 -0.9502764 -0.39909005 -0.5288245 2.193504 1.489732 1.6984061 -0.34161294 -0.1062767 -1.1440187 1.1978272 -0.23621522 -0.18701984 -0.12716761 0.35097232 -0.94526017 -0.23156968 0.7219053 -0.20320778 -0.6499276 0.6883938 1.5072726 0.7147572 0.26745823 -0.7657334 -1.1215272 0.8034575 0.36655253 -0.20902812 -0.040364902 0.023878494 -0.094954066 0.1795112 0.062168054 0.33942875 1.2126355 -0.8359342 0.39763337 0.6366264 -0.35673997 0.07302461 0.7546258 -1.4471476 -1.0752511 -0.172683 -0.2768145 -0.67154914 -0.41105607 -0.9416011
CL:0002113 0.33519307 -0.18191667 1.668911 -0.31264147 -0.96595097 -0.9841786 0.46484476 1.1585166 -0.55649304 0.38324502 0.51215893 -0.14917424 -0.7212053 -0.2251184 0.77854824 1.390552 -0.52423555 0.09491817 -0.52421016 0.4211133 0.62862545 -0.16399446 0.7146091 -0.21289858 -0.6550356 1.5515827 -0.06296642 0.40362024 -0.03853267 -0.78739834 0.77430326 0.27273953 -1.3030481 -0.5214823 -0.15118156 0.28980947 1.2178268 -0.3866144 1.1408503 -0.016919976 -0.7248747 1.2997792 0.7757951 0.71480924 -0.07939129 0.31600076 -0.34348848 0.14223984 0.18306907 0.6751144 0.5596983 -0.42363697 -0.016731272 0.40501547 -0.75619155 -0.34770945 0.36248022 -1.2051672 -0.32554922 0.4566059 -0.28010374 -0.32104546 0.4011277 -0.262003
CL:1000397 -0.057008713 0.20329802 0.65386665 1.2470088 -0.68538725 -0.3799873 0.72860116 0.015164116 -0.43420085 -0.53672963 0.8044474 -0.3957923 0.026005011 -0.7319548 0.40168703 0.24511333 -0.2082783 -0.029777057 -0.028274082 1.1741793 -0.03646953 1.2384101 -0.45233127 -0.93555033 -0.65154153 -0.10721613 -0.8145786 0.1816981 -0.22364672 -0.03087717 -0.33721906 0.74996907 -0.5324204 -0.78580266 0.5457323 0.99333704 1.0322235 0.40314022 0.67836136 -0.42952096 0.45561448 0.53004843 0.8297975 0.21062735 0.70639133 1.1392395 -0.8272209 -0.8098998 0.5209575 0.6319899 1.1226206 0.65144604 0.6331672 -0.2638853 0.078318745 -0.25944412 -0.6521049 0.27705735 -0.4673391 0.4853213 -0.66457033 -0.85210896 0.642969 0.22871797
CL:0002116 0.7359355 -0.55205745 0.83614665 0.5592523 -0.34466124 -1.2362667 0.5363487 0.3436821 -0.9011805 -0.09429468 0.40350047 -0.51266813 -0.4497435 -0.54214257 0.6126402 1.1143897 -0.47861797 0.19006987 0.32225415 1.5033844 1.1778437 0.4739259 0.72061235 -0.22293672 -0.11301237 0.9059974 -0.19780695 0.2612865 -0.09182875 0.0668972 1.0296268 0.6902073 -0.9613555 -0.57886577 -0.10613655 0.3382859 1.4645311 -0.1873207 1.0294577 0.5602971 -0.57561356 1.1619247 0.4904184 0.30448794 0.45437962 -0.559763 -0.08757506 0.5142515 0.5107517 0.7075543 0.09263986 -0.3764389 0.72195303 -0.12453945 -0.8748048 -0.16023767 0.6321754 0.04481164 -0.38718614 -0.3121126 -0.24189506 -0.34760025 1.2047752 -0.61970073
CL:1000359 1.4669808 -1.3168643 0.8089406 -0.14151372 -0.67287135 -1.5123976 0.057792462 0.7311607 0.24162294 -0.7629998 1.4281492 -0.25303867 0.3253751 -0.4424985 -0.3418466 0.52214426 -0.44306806 -0.12216781 -0.11232609 0.29295275 1.0083855 0.669039 -0.57357794 -0.5939188 -0.19706622 -0.8201837 -0.8368962 -0.0062267175 0.17871277 -0.004529286 0.33066016 -0.397945 0.43228766 -0.8383914 0.03659341 0.37107688 0.4740343 0.8436422 0.41620937 0.065860085 -1.1581647 0.3251542 1.0024233 0.57319343 0.6507888 -0.6707084 -0.55105925 -0.056976277 0.932024 -0.09626084 0.017902171 1.1453528 -0.20171688 -0.21842422 0.41564518 -0.32981622 0.37163892 -0.36295015 -1.040544 0.5383429 -0.7782672 0.23352604 0.44981897 -0.61790603
CL:0000019 1.1104804 -0.26506126 0.5601985 -0.4467015 -0.15916112 -0.96798813 -0.16864653 0.11759648 -0.7905322 0.26316342 0.6989191 -1.7907935 0.16399625 0.08464596 0.5512164 1.6088263 -0.7125603 -1.0730696 0.42313084 1.1905233 1.459101 1.2959732 0.29056603 -1.1052041 0.6403875 1.135635 -0.65188146 0.74127895 -0.22374272 0.32384232 -0.16384614 0.6972175 -0.27184197 -1.230712 -1.2624004 0.87571275 -0.22484258 1.1896486 0.798782 -0.5978929 -0.672423 1.0606909 -0.6837421 -0.71555465 0.06180527 0.28732386 -0.4885867 0.27355012 0.033798296 0.8359404 -0.5533772 -0.006085643 -1.1234254 0.47347078 -0.16957444 -0.18674397 0.36518258 -0.88306296 -0.5519208 0.07720831 0.15534623 0.6830901 0.2575633 0.09659139
CL:0002110 0.8980281 -0.74657893 -0.20999223 0.79550034 0.5103655 -1.7891798 0.2118223 0.23047462 0.04621923 0.14694397 0.8351787 -0.798869 -0.13600215 -0.9857822 -0.21543287 1.2343729 0.2525115 0.63756686 -0.14249876 0.9804769 0.78634626 1.0998818 0.5814156 0.046021994 0.30553925 0.73211515 -0.23566405 0.40624678 0.12532343 -0.6199206 -0.6308336 0.51994485 0.033346523 -0.3266397 -0.78820974 0.23353097 0.99469054 -0.3911451 0.46610618 0.12521437 -0.798615 0.34288752 0.03924016 -0.2703647 0.22515753 0.23609193 -0.5651323 0.13713656 0.22813754 0.3875069 -0.6457652 -0.60566556 0.90818685 1.1879648 -1.046583 -0.43499634 0.025495067 -0.6530394 -0.658794 1.2170786 -0.7169949 0.9014562 0.69008106 0.105697215
CL:0002325 0.37312877 -0.7396957 0.97148305 0.2897838 0.04248352 -0.56498116 0.14605714 1.0459027 -0.10844139 -0.22646713 0.4413387 -0.8596971 -1.0220983 0.7691632 -0.6350339 0.88429445 -0.7553618 -0.12928787 -0.91085196 -0.5662652 1.144809 1.0756812 0.44013345 0.277942 -0.104883604 1.1754498 0.5998314 -0.43529904 -0.23313525 -0.5730436 0.27733526 -0.69726396 0.16658106 -1.019979 -0.075035706 0.3873357 0.91605616 -0.29828477 -0.47948787 -0.67235893 -0.5330225 -0.013234834 -0.08697305 0.24653384 0.8168278 0.37961125 -1.1964347 -0.35861024 0.6886528 0.42225003 0.06267923 -0.39265117 -0.21046455 0.7786487 0.09578357 0.13930552 -0.7849463 -1.0405617 -0.6544446 0.6729936 -0.22080667 0.64568794 0.026503127 0.48999888
CL:0002215 0.21879637 -0.32542655 -0.16373773 0.88090444 -0.56461614 -0.9255717 1.2240629 0.884955 -0.05481544 -0.70336014 0.70283496 -0.3020404 0.6946355 -0.88765866 0.825036 0.5675007 -0.23042907 -0.93199974 -0.9321177 0.27341238 -0.37882185 0.92953664 -0.40739742 -0.93138796 0.04929587 0.4521679 0.5507883 0.47370374 0.7105984 -0.16336477 -0.87128216 0.20163594 -0.6582738 -0.7708892 -0.9269727 0.47905153 1.0184828 0.16396707 0.7167018 -0.41937545 0.43702057 -0.2088377 0.5740624 -0.18148515 0.4003648 0.008571627 -0.8004472 0.20665355 0.46473905 0.56173253 0.843291 0.13020809 -0.03938428 0.88260734 0.37702632 -1.3785589 0.94996023 -0.699629 -0.51585245 -0.004818678 -0.4497831 0.2949266 0.4214519 -0.09681761
CL:0000196 0.41617954 -0.44770408 0.45166188 0.3007253 -0.08499601 -1.4106245 1.0475341 0.8976693 -0.72594106 0.5976606 1.3128793 0.16827211 0.75444454 -0.68547255 1.3118763 1.4111712 -0.13485175 -0.23244262 -0.3236058 0.2733399 0.5097281 0.8582647 0.19128752 -0.33841982 0.14218822 0.7305428 0.18359417 -0.18107845 0.2860893 -0.31462896 -0.46154734 0.19369657 0.39403695 -1.2252183 -0.3028807 1.1716315 1.4964505 0.09775714 0.48149514 0.57541203 0.48436037 0.19911684 0.063412085 -0.087058805 0.702776 1.1163265 -0.33609584 1.034158 0.6216153 0.67775327 0.757521 0.74116665 0.18692994 0.89129096 0.34893468 -0.24026068 0.75329965 -0.14568254 0.088669576 0.44051072 0.42698443 -0.15918066 0.5329114 0.7522327
CL:1000349 0.65226257 -0.16051862 1.0901364 1.8344038 -1.7720969 -1.0927749 1.4124916 0.084024385 0.35116363 -1.3124844 0.7172104 -0.2565846 -0.6342078 0.7258567 0.68356776 0.7821638 0.28985316 -0.9653202 -1.2858113 -0.50169736 0.13204993 1.6220281 0.94531953 -0.0057401867 1.0764052 0.6254725 0.6362308 0.72659636 -0.1475322 -1.0070195 -0.6981803 -0.18429671 0.14692262 -1.7260964 -1.5829769 0.1490981 0.69713324 0.16154689 1.3677468 -0.15932971 -1.3785523 1.0785002 0.7596946 -0.6439415 0.3292961 0.31358016 -0.49998966 1.1356264 0.8922606 0.16733824 0.24398299 0.87209177 -0.06448829 0.80621815 -0.2464554 -0.60567516 -0.0924247 -0.2588319 -0.9239322 1.0506427 -0.37798017 0.17923507 0.31244114 0.13392584
CL:0002605 0.9877252 -0.4481675 1.7406732 0.3820924 -0.7048173 -0.61714166 1.3433927 1.2423849 -0.50932544 -0.21502917 1.3483497 0.5891808 0.03772076 -0.06484552 0.5328415 0.024337102 -0.38502523 0.21567386 0.1659543 0.3344775 0.27481747 1.5941641 -0.05808848 -1.666403 -0.6115784 1.2571112 -0.6531623 1.1082213 0.35146445 -0.1568669 -0.199555 0.014351966 -0.31347406 -2.0219953 -0.41971424 0.4044398 0.40736136 1.0607423 0.7268776 0.6389164 -0.010401331 0.17925496 -0.07483757 0.64233655 0.41602397 0.17119367 -0.31811982 0.3713066 -0.6036042 1.0361274 1.095684 0.38867572 0.15959743 0.68930465 -0.49875703 0.28873155 1.0578625 -0.8433659 -0.5339952 -0.123266704 0.16936816 -0.498943 -0.5712278 -0.49142906
CL:1000308 0.726506 0.3506218 0.4691945 0.5032803 -1.1302724 0.11060761 -0.03740765 -0.7528459 -0.037684586 0.26081115 0.7426505 -0.46512923 -0.31931335 -0.29386967 -0.34649706 0.98294204 -1.0735677 -0.44866964 -0.8316002 0.113513306 0.681287 1.4398856 0.30668747 -0.46489668 -0.33864352 0.86061984 -0.66346014 -0.102111064 0.41322005 -0.082055524 -1.0170885 0.27759114 -0.49632832 -1.1147721 -0.08353771 1.2617201 0.91522366 0.017916633 1.0258081 0.0892677 -0.17594966 0.09058958 0.028515946 0.27217945 0.377724 1.4684498 -1.2109938 -0.4247306 -0.17407772 0.3220387 0.21828228 0.60433275 0.49898335 -0.37518674 -0.5237017 0.06598085 -0.0656377 -0.03632314 -1.0533864 0.25626191 -0.74589425 -0.27777687 0.3833442 0.07334206
CL:0002624 1.2661887 -0.9146185 0.42650568 1.0508113 -1.0634278 -1.2426345 -0.35082084 0.6858635 -0.057611585 0.32912418 0.5732973 -0.24484578 -1.0338777 -0.30098656 0.1914629 1.1037388 -0.28462264 -0.565255 0.15541895 0.78991973 1.0164043 0.813841 -0.32266563 -0.8878126 -0.920722 -0.5052992 -0.13377109 -0.2599539 0.022752821 -0.078110464 -0.02836968 -0.82575184 0.4469841 -0.64848495 -0.93379885 0.5854404 0.37465176 0.55442566 -0.58672345 0.33990958 -0.5439638 0.13487408 0.87065434 0.6618242 0.09992442 -0.5502251 -0.10444885 0.028190566 0.52625966 -0.026961649 0.21044226 0.25020438 -0.058143914 1.1994749 0.4622633 -0.22097537 0.47485787 -0.5597592 -0.7232606 1.0249194 -0.7174154 0.15141533 0.55222946 -0.51299775
CL:0002173 -0.22533901 -0.23119658 0.23180532 0.36975423 -1.0399897 -1.0902216 0.5991716 0.50207764 0.19497728 -0.17022029 0.3214809 0.028512051 0.31878486 -0.30555657 0.68166536 -0.41172695 -1.5672147 -0.23831818 -0.18414198 0.82706994 1.5888938 0.41489547 0.4653418 0.2905893 -0.38838336 0.25259644 -0.4407081 0.73800313 0.062546685 0.21433733 -0.55923295 0.38080543 0.37247512 -0.71095407 -0.7981083 0.8616485 1.0884211 0.40035963 0.23400344 -0.6789002 0.11050507 0.93969315 -0.23114775 -0.5807179 0.70027435 0.543222 0.16665865 0.21501504 0.56827193 0.22320713 -0.24153543 0.13094413 0.5683742 1.2366035 0.38775 -0.3751891 0.33693233 -0.87378055 -1.0833156 0.3494198 -0.44155517 -0.1426468 -0.20302111 -0.53262514
CL:0002205 1.0997424 0.35645145 0.84402186 0.5676219 0.022910852 -1.2693934 1.1663353 -0.010577352 0.32494584 -1.4055454 0.91399467 0.37809202 -0.37556675 0.374095 0.75243783 1.3667178 0.04475869 -0.88836676 -0.056647185 0.49194595 1.0015708 0.10938758 0.41338554 -1.4194068 0.115971275 -0.0020624588 0.17608029 0.21058579 -0.2102305 -0.5520891 0.48018965 -0.2395935 -0.56977916 -1.9587773 -0.56185955 0.61014736 -0.14033368 0.17524923 0.6491307 0.12493838 -1.0565382 1.4651772 -0.100637436 -1.1193613 -0.03719563 0.05458886 -0.6686923 -0.13999534 0.5607177 0.91859746 -0.40683982 1.3761252 -0.053609814 1.0965986 0.7917548 -0.007546152 -0.1155646 0.4723216 -0.9518507 1.0822259 -0.41949117 -0.34186885 0.050524194 -0.6689314
CL:1000351 0.67422634 -0.27014267 0.9112892 1.4858814 -1.5771031 -0.88950294 1.3313951 -0.0262569 0.27914923 -1.1477456 0.677371 -0.21518713 -0.7716927 0.71171284 0.77588445 0.8649762 0.20280178 -0.9854535 -1.1523352 -0.35145792 -0.12653895 1.4557277 0.8316502 0.077375956 1.0393373 0.7660986 0.5254108 0.68048966 -0.0375407 -0.7847422 -0.4454279 -0.19045754 -0.06046234 -1.5300459 -1.6205391 0.17021844 0.64664054 0.2963128 1.2834648 0.04011498 -1.1899841 0.98969537 0.96828055 -0.5191562 0.33307672 0.4460871 -0.5447238 1.0094178 0.9851142 0.16930054 0.28593132 0.79189295 0.0484244 0.7771743 -0.3708286 -0.5083767 -0.20535228 -0.122319624 -0.81440777 1.073573 -0.33876333 -0.04500749 0.2527509 0.26976442
CL:1000350 0.66114116 -0.2989613 0.87876683 1.4679486 -1.5798439 -0.8602384 1.3194423 0.005282178 0.2496407 -1.1333299 0.6746256 -0.19420974 -0.81806636 0.6834221 0.71859354 0.85664064 0.174283 -0.9718717 -1.1725966 -0.36740395 -0.13476285 1.4499072 0.8810668 0.09559662 1.0621333 0.7998375 0.52395165 0.6920752 -0.028194765 -0.7281393 -0.47058877 -0.22937216 -0.020808836 -1.4444293 -1.631501 0.21708174 0.6768927 0.2976362 1.2313813 -0.018322015 -1.1756212 0.9713027 0.97373396 -0.51034606 0.332803 0.4437184 -0.526786 0.9934035 0.99885505 0.12628345 0.3044768 0.7861339 0.039047107 0.78099227 -0.34114906 -0.56077677 -0.16555847 -0.14421053 -0.8283465 1.0734756 -0.396885 -0.06929169 0.28046063 0.24314408
CL:0001064 0.0035805579 -0.1808593 0.47327346 0.2053367 0.024736462 -1.3370312 -0.20743972 -0.04794477 -0.34091797 0.05486743 1.5028179 -0.18897519 0.27283123 -1.3796835 0.5901772 0.6714407 -0.14540549 -0.5778007 0.35266423 0.8082875 -0.10581848 1.2886828 -0.22892764 -0.4475847 0.16682582 0.35161555 0.59313935 -0.20154823 -0.44312093 -0.9363194 -0.21716382 -0.23252301 0.06802858 -0.8987167 -0.9080247 0.7389726 0.96238476 1.0726949 0.6276689 -0.613201 0.04821748 -0.21148343 -0.48233908 0.8094684 0.6859631 0.13800503 -0.2315323 0.45069408 0.61631566 0.93500537 -0.62414676 1.0822898 -0.11495158 0.74682176 -0.25174564 0.08895796 -0.21525335 -0.6655139 -0.80856454 0.92023975 -0.053829074 0.81230265 0.6730749 -0.32055166
CL:0000138 0.44493505 0.097410895 0.58917075 0.513212 -0.8815961 -1.7742114 1.460363 -0.092091344 0.027168708 -0.11235438 0.9526562 0.42585728 -0.84110487 -0.118899144 0.2973947 0.65478164 -0.9437946 -0.24600913 -1.1595868 1.5940684 0.10360673 0.96946055 0.19394611 -1.6973367 -0.045074802 0.4144221 -0.83756006 0.7879966 0.3800657 -0.4353101 0.5965666 0.7953001 -0.32764593 -0.4524958 0.2266988 0.5799344 -0.17650208 -0.728061 0.8145605 0.902388 -0.699731 0.06543837 -0.16006711 0.36310035 0.7477777 0.705578 -1.1533865 -0.5504827 0.6254561 0.5263628 -0.2645587 -0.2910825 -0.6687162 0.06289443 -0.9124789 0.7917974 -0.42368355 -0.44770184 -0.50125074 0.23921001 -0.81872404 -1.150205 0.19364579 0.29656187
CL:0011005 0.66193235 0.20338772 0.8274372 0.24268007 0.39511025 -1.3021262 1.1079416 0.34121093 -0.58736336 0.16273446 1.2106073 -1.3544545 -0.12333287 -1.0053937 0.83301646 0.72811323 0.2967702 -0.6903672 0.41749513 1.6181135 1.8754549 1.212465 0.10233446 -0.4564928 0.5731302 0.83520174 0.24066891 0.42296475 0.15335663 -0.8465833 0.61842406 -0.4226208 0.3441369 -0.37315828 -1.2116772 -0.424973 0.6704079 0.7892624 0.109059975 -0.2560707 0.46327734 0.35033226 0.06322367 0.09546054 0.24473932 0.87339437 -0.5979846 0.30945072 1.2602178 -0.03818 -0.16784185 0.6789435 -0.2739439 0.43896294 -0.74557704 -0.78548837 0.13588311 0.02961757 -0.47758454 -0.5352674 -0.3856153 0.19483209 -0.20095834 -0.00081849605
CL:0008027 0.81312776 -0.6937861 0.72024816 -0.26162705 0.61257994 -0.66819614 0.63166785 0.3534658 -0.94206995 0.13214242 1.3186512 0.2932393 -0.20027003 0.11152235 0.06489435 1.3108268 0.0042567854 0.14323667 -0.5872042 1.4434977 1.5267209 1.4812367 -0.4867027 -1.663733 -0.5679492 0.37967283 -0.5818 -0.032883547 0.4837113 -0.7325295 -0.16072144 -0.3771707 -0.17660347 -0.24314411 -0.23642802 1.316478 0.6045073 -1.0462581 0.8744655 0.5630703 0.042655114 0.32850033 0.2816557 -0.35950527 0.22652641 0.14655462 -0.38441995 -0.61232007 0.77087307 0.326779 0.015481829 -0.097401045 -0.14619397 0.009895205 -0.19951166 -0.70835894 -0.63059384 -1.0448639 -0.111834966 0.050127976 -0.52848905 -0.10694871 -0.34275535 -0.311358
CL:1001111 0.7138378 -0.06170866 0.40303275 1.0536945 0.2558556 -0.91774285 1.1622925 -0.2687864 -0.5564738 -0.6280521 0.50238323 -0.5309468 -0.6541095 -0.39322117 0.39805892 0.21419927 -1.4540982 -0.011299651 0.27165443 0.87762856 0.87564766 0.9387992 0.046243094 -0.1961763 0.18196014 0.25848016 -0.0058629895 0.11636615 -0.5804271 -0.0011823565 -0.3605032 -0.08194986 0.18567836 -0.78028107 0.0013545657 -0.59938496 -0.41417322 0.54597884 -0.6102111 0.5239588 -0.63544935 1.0727695 -0.33149853 0.7067047 0.91991425 0.3785023 -0.4503007 0.3199351 -0.15483606 1.015138 -0.29398507 0.568685 0.3148544 0.48300827 -0.53511834 -0.36759287 0.6617509 -1.4504603 -0.76503825 0.15211348 0.1813681 0.0976544 0.55413663 -0.7471108
CL:0000781 0.15204382 -0.25469482 0.08476502 1.0115556 -0.791571 -0.025115084 0.45440078 0.98409605 -0.1749444 0.42843443 0.7330733 -0.21247132 -0.4914294 -0.07093392 0.5337159 0.35193563 0.2109699 -0.9542101 0.04548114 1.03185 0.27744853 0.71644104 0.22535075 -0.8134805 0.3117735 1.3482376 0.35899875 1.4786009 -0.7249925 -0.35658365 -0.453698 -0.036983747 0.602209 -1.3830726 -0.46369576 -0.19470538 -0.16352025 -0.52448666 0.21146034 0.09172657 -1.4827579 0.64288586 0.42423713 0.20817877 0.06755594 -0.20557085 -0.42772567 -0.33148447 -0.36609176 0.5243396 0.3662585 0.04951991 0.6793421 0.44539252 -0.6380754 0.49280593 0.47506055 -0.18320999 -0.5194953 1.1846424 -0.71028155 0.5352366 0.7332762 0.40651873
CL:0002442 0.4618464 -0.2980075 1.4522123 0.19437052 -0.53680646 -1.4620469 0.22681071 -0.03531412 0.30341202 -0.08950297 1.036628 0.41606662 0.22989538 0.33947027 0.12555774 0.3967627 0.40339243 -0.2691041 -0.060261447 -0.31440103 0.77241415 0.8987501 0.5119086 -1.1830866 -0.32117718 0.9681687 -0.24522461 -0.4501304 0.45862716 -0.6944751 -0.47510567 0.45648634 -0.5519676 0.022863667 -0.53855574 0.53687143 0.060948484 -0.45490083 -0.18073021 -0.13740063 -0.86420506 0.04898949 0.4293809 -0.72126794 0.17638473 -0.7213264 -0.67619133 -0.38269562 -0.091389515 0.8444947 0.67585146 -0.36238888 -0.38744038 0.26377234 -0.9654878 -0.9353226 0.06371038 0.055267673 -1.1760837 0.33878818 -0.07049228 0.42561322 -0.11628617 -1.098845
CL:2000041 0.91993153 0.013885428 0.4404702 0.06140595 0.08606922 -0.390508 0.49837267 0.2764607 -1.008224 -0.5908163 1.51169 -0.015321381 -0.32300356 -0.059341103 -0.15265585 0.30000532 -0.5126303 -0.9080937 0.14323442 1.1433244 1.0372005 0.61189795 -0.30567038 -0.93219006 -0.8912769 0.24051023 -0.35658085 -0.54459226 -0.5576282 0.11007753 0.4581148 0.4057542 0.73041487 -1.6949543 -0.50757945 0.49169806 0.90961933 -0.1271977 0.31235 0.2663052 -0.244768 -0.012811404 0.05385213 0.81453127 0.52452713 0.8323128 -1.0193518 0.049116403 0.8268068 0.059922364 -0.57941765 0.26566342 -0.13990386 0.8233816 -0.46460235 -0.36260885 0.38085502 -0.21855277 -0.9980942 0.14247417 0.14195266 0.11143952 -0.952768 0.7648585
CL:0002449 1.3568219 -0.3526698 1.1452547 0.19901162 0.36444107 -1.0634962 0.7403852 0.7250132 -0.17647721 -0.6509498 0.6453976 -0.01725508 0.21260235 -0.28283527 0.7898631 0.65465397 0.2655376 -0.9507481 -0.5471508 0.67416567 0.7121314 0.58146083 -0.67919993 -1.0191331 -0.85193175 1.5416267 0.04789211 -0.37296966 0.204366 0.059610408 -0.28907904 -0.23925056 0.15493932 0.09118038 -0.5846194 0.17892188 -0.42976016 -0.2829906 0.34661746 -0.21381022 -0.58242065 0.1551828 -0.59148496 0.35993755 0.70906454 -0.7211779 -0.57492733 0.109957874 -0.48381448 -0.047945235 -0.26434493 -0.41287544 0.60177267 0.70741713 -0.23041831 -0.90193355 0.527665 0.069512434 -0.5758433 -0.17561646 -0.6061555 0.08427664 -0.5999895 -0.43875828
CL:0002211 0.16416293 -1.0052769 0.050318334 0.5964779 -1.1092582 -1.0742345 1.3091695 0.6045473 -0.1698587 -0.45931843 0.7427959 0.30972797 0.14012901 -0.8662132 0.47793442 0.67714053 -0.28139976 -0.69706696 -0.33307025 0.71714413 -0.09051882 0.6885968 0.036127873 -0.7632419 0.90971893 0.58348745 0.23736091 0.13519843 -0.082005955 -0.1914347 -0.8820675 -0.27666697 0.3855611 -0.60145277 -0.421476 -0.04267992 1.4384612 -0.49406904 0.43716785 -0.25151804 -0.05425433 0.1270435 -0.1310471 -0.14935009 0.69303155 0.683808 -0.44004518 0.9818161 0.42124563 0.40349904 0.5386693 0.46559805 -0.209931 0.58824915 0.66790456 -0.6439392 1.0971892 -0.8688172 0.08620039 0.2539512 -0.41174123 0.05897748 0.6573501 0.5705001
CL:0000780 0.26683202 0.002852788 -0.36015546 0.87001514 -0.7800187 -0.31140134 0.54981065 0.95947546 -0.27438834 0.61214554 0.57403696 -0.30941322 0.17417832 0.076848894 0.73627263 0.72690177 -0.065370776 -1.1048454 0.22734961 1.0687095 0.27180353 0.6031817 0.010166854 -0.871951 -0.1739031 1.1710604 0.24225987 1.4510292 -0.58858556 -0.75221646 -0.5798819 -0.4832758 0.60614663 -0.8962996 -0.32449365 0.37980217 -0.15096235 -0.2345042 -0.10843442 0.36697483 -1.1711516 0.9289163 0.15264855 0.4850465 0.37093598 -0.01981951 -0.2761875 0.31804606 -0.3956281 0.8862486 0.35001758 0.21400127 0.6108385 0.05358421 -0.55640435 0.27412692 0.5884535 -0.20834357 -0.39806834 0.7214715 -0.5925017 0.45370817 0.9518293 0.24003887
CL:1000479 0.89351714 -0.14268722 0.244712 -0.3866417 0.07189783 -1.3810949 -0.108492725 -0.23137812 -0.653923 -0.8849808 0.9604992 -0.6276515 0.56985843 -0.78786683 0.3215783 0.80683637 -0.52920145 -0.1934277 -0.3500386 0.77926916 0.39269835 -0.201188 0.16537333 -0.6308867 0.101907924 -0.07129252 0.31061915 -0.12351356 0.5405151 -0.042875305 -0.57794327 0.16393766 -0.7472272 -1.4401664 -0.21335854 0.7139808 0.47582301 -0.73550475 1.1873505 -0.21919525 -0.72419876 0.51819396 -0.21973488 0.1696384 0.45353842 0.503044 -0.63363516 0.14272352 0.728718 0.3619421 -0.633694 1.3824803 0.49227968 0.3111105 0.49440485 0.08449571 -0.30954757 -0.7588128 -0.6677072 1.1033715 0.015706193 -0.426698 -0.047164787 -0.19232644
CL:3000002 0.8763871 -0.2668559 0.74813265 0.50551754 -0.7551407 -0.06408626 0.49543774 0.22981274 -1.3298098 -0.23797783 0.44183192 -0.28535447 -0.63949805 0.06110501 -0.047370292 0.9556327 0.6000772 -0.550642 -0.33244812 1.2587029 0.6678632 1.1827484 0.8083804 0.3681323 -0.58405864 0.4339252 -0.6566104 0.49560267 0.15897395 -1.4038115 0.9917142 0.15132396 -0.23123322 -1.0245408 -0.7753564 -0.13711229 0.75207645 -0.46437472 0.619413 -0.17266741 0.42904156 0.7679684 0.24065891 -0.6122446 0.47729847 0.14809045 0.005660345 0.23746009 0.62240666 0.6208532 0.37031308 -0.077257074 0.8374034 -0.17556043 -0.35426432 -0.019841658 -0.18114105 -0.19343705 -0.65505004 0.8428568 0.08844162 -0.22339079 -0.24782506 0.8530056
CL:0000001 0.83507323 -0.504261 0.8991517 0.9261325 -1.24303 -1.390302 0.7807061 0.05505158 0.13023901 0.31905785 0.4599482 -0.37663555 0.25329417 -1.0653079 0.07634412 0.9836207 0.59014446 -0.9644203 -0.74222803 1.3290665 0.29818004 1.3632323 -0.22850625 -0.16277999 -0.014913345 0.5813329 0.034566414 -0.56125534 0.46316984 -0.32719913 0.44094858 -0.083015814 0.2188144 -0.551393 0.12895483 0.22634788 0.6120506 0.026233997 0.71058965 0.12756106 -0.22470449 -0.02067495 0.03157978 0.74068093 0.79012495 0.43373588 -1.5313363 -0.36495152 -0.48717338 0.831038 -0.20204481 0.24603479 0.22564414 0.17361623 0.12438894 0.1935636 -0.51983726 -0.90627205 -0.40092033 -0.23893528 0.094578646 0.7660864 0.5816499 -0.5731667
CL:0002170 1.2424256 -0.152704 0.014183957 0.724058 -0.3907587 -0.9779243 0.10670526 0.8265205 -0.26102898 -1.0157143 1.2485917 0.2185362 -0.12036165 -0.47714245 -0.023933843 0.8403616 -0.98551524 -0.46764454 0.15437718 -0.67486656 0.14028294 0.78418595 0.80616957 -0.64549804 0.6666174 0.7440578 0.10636567 0.36892077 -0.041099053 0.3134842 -0.09315181 -0.095085055 0.84234375 -1.2147952 -0.27842906 -0.12467937 0.6176615 -0.26625982 0.7752021 -0.17225218 -0.19987996 -0.13184239 -0.15648438 -0.31134248 0.56179947 -0.80402386 0.15377815 -0.22856535 0.12413746 0.9967672 -0.85704577 0.19351004 -0.16794325 1.0260619 0.687882 -0.8671113 -0.06374934 -0.25090528 -0.7725327 0.99152744 -0.30200282 0.59369934 0.38157895 0.36745352
CL:0000524 0.7051594 -0.29687148 1.04894 1.0881151 -1.3375726 -1.1929688 0.75112283 -0.073822014 0.19512282 0.08325937 0.6130085 -0.5992924 0.19136977 -0.8309801 -0.09425377 0.7408392 0.49200025 -0.92417955 -0.6353173 1.4584829 0.6375437 1.3278906 -0.25078753 -0.34508315 -0.28556532 0.7427019 -0.075320624 -0.4841741 0.33017617 -0.20842752 0.51095134 -0.014195731 0.2869394 -0.7079264 0.42404062 0.13259101 0.7576464 -0.19101971 0.44624382 0.08728087 -0.19628021 -0.065865986 -0.061679963 0.7201754 0.5305021 0.38789824 -1.5094889 -0.09893882 -0.5934417 0.9385772 0.04015911 0.4042544 0.1655377 -0.13716309 0.03510441 0.28864872 -0.44019154 -0.8032355 -0.32070678 0.09608824 0.31690207 0.55950755 0.7302903 -0.51766884
CL:0002332 0.488202 0.66872764 0.97894615 0.24236046 -1.0426667 -1.4814793 0.7051451 0.5536167 0.08999589 -0.79899913 0.7232109 0.067787506 -0.7334249 0.2189546 0.5115452 0.98263127 0.39015076 -0.51318216 -0.32367378 0.2150618 0.30396634 0.8366858 0.25625443 -0.03891663 0.24247499 -0.036581807 0.28330633 0.9214873 -0.36301026 -1.1747614 -0.56446046 -0.30030376 -0.42136863 -1.6907827 -0.33358157 0.58015823 0.28216547 0.8550227 0.79923713 -0.39363936 -0.84946096 1.111427 0.48981607 -0.38933223 -0.5448348 -0.13862485 -0.29585338 0.3646544 -0.061663415 0.5245468 0.15792185 1.0167782 0.0649387 0.6009007 0.50417346 -1.0308079 0.11797797 0.39713645 -0.6828781 0.4313618 -0.00066745706 0.6654372 0.022506332 -0.92178684
CL:0000025 1.3486644 -0.6881991 0.017850837 0.021235552 -0.806167 -1.4233068 0.38112876 0.19556938 -0.19430885 0.4522483 0.39848086 -1.303477 -0.22623868 -0.06841483 -0.3828901 1.454907 -0.12462303 -0.7973655 0.010266738 0.5119874 1.1052729 1.4712242 0.35342312 -0.82428545 0.30996075 0.9657348 -0.3794383 0.2788732 0.6104844 0.48724872 -0.52679825 0.8112866 -0.45027846 -0.8794689 -0.6809496 0.42887267 0.16093916 0.5979607 0.1253493 -0.04080205 -0.18461391 0.5349044 -1.1588019 0.0004830505 0.12563096 -0.3063579 -0.18941112 0.48919547 0.5484298 0.57385844 0.20508073 -0.7053544 -0.34451917 0.9155337 0.2637609 -0.4187812 0.28282383 -0.32856584 -0.5059762 0.0487045 -0.07775917 0.38111928 0.9875818 -0.25083014
CL:0001045 0.3455155 -0.7314064 0.8166629 0.19675511 -0.17134911 -1.0734293 1.063687 0.091957435 -0.3145867 -0.2996978 1.436394 -0.65653205 -0.6655941 -0.2440546 1.1347365 0.018779969 0.73025113 -0.41013724 0.05427214 1.0888958 0.34342152 0.96814084 -0.51712567 0.12547025 0.10731237 1.100091 -0.21856797 0.7223885 0.68478036 0.059949093 -0.22897956 0.63169324 0.34884447 -0.7685418 -0.48628363 0.49693075 0.8555673 -0.07121857 -0.016876228 0.61358774 -0.5688065 0.09941354 -0.17872237 0.28363815 0.88608795 -1.0205554 -0.36422414 0.45083308 -0.33113045 0.44336003 0.24305333 0.5790048 0.07113938 0.17817591 0.36683697 0.5355413 -0.57259434 -0.24805148 -0.53095865 0.50096285 -0.7661848 -0.32074758 0.8265068 0.68710184
CL:0000961 0.57916886 -0.13279116 0.83907086 -0.26823315 -0.07234874 -0.705042 0.80415136 0.748757 0.2215514 -0.03285149 0.9156364 -0.040256847 -0.3522104 -0.99748385 0.67165196 0.4473031 -0.37618047 -0.5247805 -0.16278793 0.25689515 -0.30119193 0.6201807 0.65602714 -0.35401794 0.1890359 0.8867047 -0.17870352 0.52002543 0.5481706 -0.0018966773 0.48137757 1.0352845 -0.84491944 -0.84883815 0.6651278 0.38500378 0.87908065 0.51180065 -0.2857831 -0.73408526 -0.56048095 0.8963052 -0.17768258 -1.1258423 0.009071284 0.2708558 -0.7271277 -0.4236138 -0.15284878 -0.004587856 0.013010038 0.36924353 0.009075793 0.79804695 -0.50482166 0.017911864 0.3823654 -1.1716585 -0.7759777 0.98333114 -0.6222831 0.56794214 -0.11284643 0.35665506
CL:0000192 0.50382507 -0.5744396 0.3644534 -0.24268568 0.29480278 -0.7182548 0.22404079 0.26858088 -0.32435718 0.6730674 0.6527511 -0.31977844 0.4794414 -0.2418928 0.046117414 0.18200308 -0.63687223 -0.10482836 -0.16283113 0.95917046 -0.062565796 0.7856367 0.5777433 -0.96360064 0.27474585 1.9167427 0.21168622 -0.88010967 -0.39780682 -0.84784037 -0.76351875 -0.08461975 0.48818457 -0.6029142 -0.12833393 1.7664185 0.99909145 -0.5628449 -0.17780623 0.19770151 -0.21030852 0.97562855 -0.25131592 -0.36059165 1.2234733 -0.41115862 -1.3903525 -0.13681 1.3463596 -0.26931497 -0.41049942 0.7433734 0.63043433 0.8743001 -0.72085315 0.2076776 0.12614086 -0.38493606 -0.03886037 -0.03180695 -0.33635083 -1.2315626 0.41670147 0.060269788
CL:0000540 0.6469345 -0.3870528 0.8670599 0.3992696 -0.09087164 -0.0772403 0.32417855 -0.12843288 -0.9270426 0.82033926 0.85641176 -0.17802954 -0.64990354 -0.07098239 -0.21095361 0.779561 0.43749797 -0.104130074 -0.13270006 1.394391 1.0205361 0.5345764 0.33576366 -0.20650151 -0.122842126 0.7296421 0.35631502 0.05360735 0.061111502 -1.7160623 0.36417532 -0.3638045 0.106917076 -0.68350947 -0.71963 0.124646224 -0.08717751 -0.74809843 0.6428552 0.4651736 0.388043 0.013033633 -0.041683123 -0.5994806 0.32236004 0.6720434 -0.43569273 0.054915845 1.2673138 0.773651 0.21283162 0.030066254 0.65065765 -0.678501 0.41255528 -1.0787842 0.18552934 -1.0315418 -0.1802751 -0.4059621 -0.02918305 -0.16118935 0.047616467 0.8342206
CL:0002391 0.23363122 -0.41362187 0.9077575 0.4293736 -0.4105629 -0.5214244 0.4187633 -0.9672361 -0.39099848 0.32313424 1.5960355 -0.7911499 0.32507706 0.027845414 -0.19758855 0.9107736 -1.0884297 -0.038412575 -0.5333974 0.31914562 0.29268497 0.27301845 -0.26250246 -0.894402 -1.0654199 0.069893576 -0.8430784 0.79414576 -0.5270113 -0.015031852 -0.051035173 -0.0009683425 0.14896521 -0.23075084 -0.35020497 0.6100802 0.52921605 0.7589957 0.75959903 0.105350606 -0.7554609 -0.018386694 0.30372655 -0.24736597 0.4540099 -0.049167603 -1.146852 -0.48104623 0.96434075 0.29691845 0.63988405 -0.21318063 0.24536337 1.3342291 -0.47422886 -0.12025155 -0.29210368 -0.24146856 -0.9416203 1.3233719 -0.13383576 0.10211506 0.21799845 -0.14468852
CL:1000327 0.5013439 -0.9189288 0.33217317 0.9510534 -0.17561044 -1.575125 -0.13020688 0.30299202 -0.026391549 -0.014004952 0.8781253 -0.75856286 -0.5103951 -0.1963647 0.1704127 0.7511562 -0.19103144 -0.5823083 -0.2316829 0.60355484 0.8990019 0.89695454 -0.14945702 -1.2598617 -0.97309774 -0.40863016 0.1429356 0.20545873 -0.3091555 0.41445127 0.21242616 -1.2025291 0.20516224 -0.2919494 -0.764579 0.44247147 0.016715752 0.63751376 -0.16560465 -0.016887285 -0.506173 0.9705921 0.8578426 0.19070426 0.33936712 -0.69269747 0.29793996 0.06431317 0.6667734 0.2278529 0.11165373 0.5546332 0.18136182 0.82182324 0.6720036 0.32811686 0.5228961 -0.8192125 -0.65542865 0.6011731 -0.7613626 0.6439174 0.7922772 -0.8364276
CL:0002388 0.20085073 -0.38089016 0.87520164 0.45605665 -0.44974795 -0.52776355 0.40459144 -0.9349627 -0.38476256 0.33628312 1.6066751 -0.6803255 0.3763461 -0.04670879 -0.19964406 0.990245 -1.0980961 -0.03764162 -0.5967935 0.40631983 0.2686587 0.22035158 -0.16779377 -0.96642107 -0.9874958 0.08796499 -0.7884685 0.8553795 -0.55716985 -0.029296817 -0.018464275 0.038058054 0.16342428 -0.1732735 -0.4239217 0.6754664 0.64746076 0.7405369 0.75480974 0.13489696 -0.7691942 -0.021711487 0.39412087 -0.13935637 0.5088322 -0.08639073 -1.1130257 -0.4477726 0.88479316 0.32221866 0.60087675 -0.36339524 0.1105397 1.3269279 -0.41198456 -0.19398184 -0.27828348 -0.38573337 -0.86516887 1.3819566 -0.17236024 0.16824706 0.19854432 -0.2049968
CL:0002483 0.43335214 -0.1339573 0.23734315 -0.30243173 -1.2907387 -0.681099 0.6546003 -0.57620585 -0.72628665 -0.55254006 1.0741357 -1.2553949 0.39544427 -0.9175183 0.14231333 0.9286528 -0.1334182 0.3831223 0.19647217 0.7958776 0.001008817 0.77798474 -0.3441957 -0.8191576 0.4603624 0.10049455 -0.70621276 -0.08245456 0.42754868 0.17016114 -0.42211702 0.2874149 -0.004832365 -0.08006168 -0.7242976 0.3870609 0.18114303 0.22470993 0.43996456 0.6411443 -0.65974087 0.41191757 0.40701044 -0.43062413 0.16261335 -0.33015203 -1.3132232 0.5681213 1.0692699 1.0780315 0.6255178 0.17727755 0.030347161 -0.5075627 -0.5581624 -1.001021 -0.06873875 -0.45488247 -0.4762077 1.0245681 -0.47660083 0.102005996 -0.16514982 -0.07519586
CL:1000324 0.50396425 0.20321696 0.57640857 0.8494818 -0.1248462 -1.3228225 0.22678173 1.0531535 -0.98347867 -0.42562285 -0.1883591 -0.40328264 0.3019464 -0.31307662 0.14114664 0.55787206 -0.0571357 -0.50235903 -0.3839685 0.45042503 0.42226312 1.3331497 0.43847665 -1.355583 -0.29521534 0.612013 -0.21139632 0.1803063 -1.0959778 0.34856787 -0.064193875 -0.23491083 -0.15949732 -0.9036788 -0.41754353 0.67926055 -0.2561423 -0.5667632 -0.07484044 0.39809665 0.4983982 0.7520539 -0.32264143 0.33375147 0.0092315115 -0.36352876 -0.8607462 -0.35678798 -0.054999173 0.46729624 0.009050442 1.0364023 0.47023296 -0.23051946 0.098607026 -0.17993209 0.16932337 -0.6863676 -0.5906905 0.2916582 -1.0103219 1.1203794 0.559307 -0.40619466
CL:0001046 0.035344314 -0.8907116 0.4047545 0.67135274 -0.5683396 -0.69179803 1.28548 0.20581694 -0.12603897 0.002896221 1.1580551 -1.2832766 -0.7927736 -0.9251343 0.43389064 0.2170204 0.6095276 -0.08564673 0.11087067 0.6203544 0.5572531 1.0078636 0.22444573 0.008939382 -0.02684839 1.1154287 -0.55525774 0.35261852 0.111801215 0.122312404 -0.5628228 0.11307759 0.28334963 -0.8695473 -1.0683008 0.6986328 1.0445176 0.1586104 0.16294801 0.37579075 0.004280427 0.14475565 0.16109897 -0.045296058 0.4371497 -0.647061 -0.37335765 0.26188213 -0.18208392 0.9157939 0.20716797 0.9129229 0.12519717 0.21516721 -0.012332201 0.539087 -0.62768567 -0.90403914 -0.17043878 0.24555078 -0.08782196 -1.0601312 0.3989459 0.45804062
CL:1000489 0.5111847 -0.25937334 0.19219166 0.18245412 -1.452039 -0.269393 0.26362517 -0.3618264 0.5951122 -0.5640342 0.65999764 -0.05788342 -0.23007257 -0.597655 0.32588762 0.4146316 0.6613416 0.45188707 -0.3524412 0.19382507 0.9036056 0.75780165 -0.20613724 -1.2880746 -0.24435431 0.88835585 -0.6894756 -0.17465435 0.8075996 -0.8886425 0.39121473 -0.11338878 -0.82418865 -1.1643674 -0.70474935 0.80871326 0.22502927 -0.15565494 0.13717088 0.63055736 -0.8695096 1.1854156 0.09041584 -0.6295346 0.21947113 0.1397639 -0.16536918 -0.3274046 -0.39063922 -0.30813816 0.3580129 -0.040513556 0.17285384 0.98315954 0.2844402 -0.016308637 0.036714118 -0.26919293 -0.9548075 -0.27380902 0.32615802 -0.27563754 -0.4676982 0.06680716
CL:1001431 1.1399816 0.13697547 0.5286184 0.44831237 -0.5332088 -1.29881 -0.26234266 -0.48747492 -0.48548016 -0.10349944 1.544845 0.042912833 -0.622055 -0.10433665 0.39262792 0.39102495 -0.24018954 -0.019369397 -0.7772155 -0.13085979 0.97852886 0.73395586 -0.66653633 -1.0449119 -0.15526423 0.64753956 -0.79649234 0.92819345 -0.7078403 0.15397476 0.5481263 0.11016753 0.3011468 -0.6682661 -1.346527 0.5684285 0.42368883 -0.20714931 0.77932227 -0.6927561 0.080211155 0.53421503 -0.766497 -0.63337463 0.7457618 0.031457458 -0.039336983 0.37360227 0.9859747 1.266533 1.1189337 1.1577132 -0.7858311 -0.29364794 -0.883916 -0.46866181 0.65895534 -0.11657765 -0.21333477 0.5141435 -0.9756372 -0.3764436 0.6166293 -0.44998685
CL:0008005 0.21490778 -0.5982846 0.5680989 0.11335493 0.001187805 -1.2513694 1.1552995 0.35542834 -0.24844234 0.5858489 1.2283714 0.23028275 0.39348367 -0.5701568 1.177473 0.9660972 -0.12919238 -0.33164054 0.19632377 0.057059836 0.38892713 0.6245609 -0.38629088 -0.09306911 0.09573797 1.1207778 0.05600286 0.06560842 0.23853791 -0.44361222 -1.0558578 0.07219289 0.90617716 -1.0161793 0.010146618 1.1399417 1.3390552 -0.17381993 0.49380657 0.48697487 0.28404087 0.7207076 -0.24967545 0.2379849 0.37402195 0.7440537 -0.66866636 0.8988489 0.4216008 0.3220215 0.50525606 0.3103831 0.3545278 0.38596493 0.19399676 -0.56554514 0.22897713 0.2471744 -0.3022122 0.35996062 0.0950024 0.09836081 0.34272256 0.4813906
CL:0008009 0.16994604 -1.1666186 0.26680008 0.106664665 -0.34115875 -0.7086248 1.0869211 -0.1458332 -0.5826142 0.35035506 0.39677233 0.005541889 -0.14808732 -0.62066656 0.41685745 0.6047985 0.018943021 -0.9783878 -0.32366702 0.92036474 0.51821584 0.35536197 0.3220378 -0.3342941 0.4791261 1.6541889 0.05858191 0.24643575 -0.21753924 -0.5261264 -0.29472682 -0.87002087 -0.13375092 -1.7012699 -0.04947203 0.685667 1.0913633 -0.9312863 0.6263936 0.12183656 0.019270567 0.1679615 0.21643306 0.40567175 1.2728415 0.5728071 -0.46280858 0.47519907 1.0457398 -0.55272937 -0.46620113 0.43181548 0.5210646 0.7405995 -0.67677766 -0.40109384 0.30306166 -0.48700678 -0.14723462 0.5565115 -0.41690895 -0.17430872 0.6554658 0.7338608
CL:1000337 0.70675844 0.2936348 0.7860638 0.2028957 -1.4625975 -1.250902 0.21196228 0.7326259 -0.18296072 -1.1196954 0.7689089 0.4678654 -0.5304688 -0.25188676 0.18113962 1.2512507 0.21417308 -0.85058856 0.58638084 -0.032404635 0.72419447 0.66822606 0.2486851 -0.77223104 0.52338994 0.30259377 -0.47269377 -0.10085841 -0.29049528 -0.44359788 -0.36522126 0.7090168 0.24386108 -0.6819933 0.2579756 0.4404111 0.13586976 0.7352908 0.23019867 1.0174652 -1.010766 1.2020329 0.5886134 0.3918149 0.070863485 -0.0001992269 -0.8326964 0.49886137 -0.512808 0.57596684 -0.5331564 1.0279311 -0.5309237 0.47770244 0.68849885 -0.45610297 -0.14707705 -0.065048136 -1.0923771 0.41440848 -0.027801897 0.20734997 0.43574634 -0.24160624
CL:2000095 0.6666381 -1.0380843 1.1979656 0.72391826 -0.8848515 -0.30114836 -0.31632638 -0.26755536 -0.039724905 -0.07683522 0.93981916 -0.8701773 -0.35500652 -0.6458917 -0.27617165 1.1989461 -0.8299869 -0.4704227 -0.53260267 0.62249315 -0.11398464 0.8249022 0.6258607 -1.0050249 0.022594063 0.4160115 0.0160613 0.49541512 0.05381209 -0.79283434 -0.13339879 -0.2679793 -0.013475143 -1.0833858 -0.029098105 -0.18847224 -0.05107216 -0.69566965 0.6021289 -0.7170736 -0.53047234 -0.09268716 0.5291324 -0.23545375 0.94422895 0.081675455 0.40118566 -0.3146294 -0.38400286 0.32420594 -0.644637 1.0408789 0.24735898 0.41210362 -0.16232562 0.18568665 0.60750747 0.22376603 -0.3878737 0.78036606 -0.68359494 -0.5123032 0.3923498 -0.16893332
CL:0002126 1.1298658 -0.77147895 0.23212306 0.6843629 -0.42845747 -1.0082709 0.91601545 -0.24772578 -1.1526935 -0.58063865 0.635671 -0.1191239 0.3971258 -0.011860001 0.98847485 0.49232912 -0.45888904 0.5384763 -0.66781116 0.07848336 0.9621977 1.1490779 -0.36956403 -1.1929984 0.3879207 0.37168512 -0.26699415 0.5752271 0.6939269 -0.09692521 0.5308872 0.91168016 0.7611403 -0.648019 0.20947488 0.23434083 0.75465214 -0.41200873 0.82148045 0.29871717 0.14119746 0.48656356 0.16133831 0.73111683 0.07568798 -0.55347294 -0.7896768 0.37439203 -0.38533407 0.50225466 0.39529118 -0.4447036 0.5616993 0.7227762 -0.06374254 0.9018015 -0.221806 -0.2970316 -0.8362099 0.70127916 -0.45254782 0.23825337 0.5637209 -0.10152827
CL:0002271 -0.012539276 0.3207687 0.164802 0.650552 -0.25004274 -0.2644891 0.7622245 0.35900223 -0.8278801 -0.8405846 0.8292057 -0.16038163 -0.35135254 -0.46764493 0.31350887 -0.04811666 -0.20141391 -0.8729955 -0.15887043 0.7722692 0.3147883 1.2901399 0.42401248 -0.76768607 -0.4753635 1.4104006 -0.042636555 0.8005834 0.51165986 0.025213564 0.2728319 0.25359064 -0.44151074 -1.2565544 -0.1382001 0.7566828 0.16629682 -0.20203006 -0.50575787 -0.09114942 -0.76544464 0.74703056 0.51483077 0.66115206 0.8455197 -0.41451207 0.059749104 -0.3223711 0.11269092 -0.14429832 -1.0784597 0.085654266 -0.4319676 0.20946798 -0.33174014 -1.083212 -0.54767686 -0.31515294 -0.8275453 0.9585191 0.61330307 -0.0049476456 0.09227129 0.43067744
CL:1000333 0.24187565 0.019371051 0.5048584 -0.27826014 -0.031394772 -1.300655 0.56060755 0.2901698 0.43189624 -0.79924715 1.6666691 -0.7920827 -0.7825498 -0.05676478 -0.009854989 0.78050643 -0.4418823 -0.7778224 -0.81454015 0.707712 0.5280366 0.6180272 0.9606045 -1.2628336 -0.8231052 0.29604182 -0.0374167 0.48107433 -0.08608442 -0.27432323 0.8815773 -0.65077204 -1.0064903 -0.010625205 -0.24837288 1.1275811 1.1161873 0.9253706 1.5075829 0.15650298 -0.60034144 0.52243227 0.54073507 -0.095269576 0.78092784 0.6142038 0.67301965 0.2096616 -0.10016726 0.7061029 -0.27679333 0.123890094 -0.100223675 1.0522892 -0.26126087 0.06872073 0.79258364 -0.9584359 -1.4216903 -0.009241838 0.04790763 -0.4766876 0.32832557 -0.25246304
CL:0002063 0.69168013 -0.84978545 0.1235548 -0.16933605 -0.23678768 -0.6337459 0.58170587 -0.066587456 -0.06340993 -0.96318376 0.81043607 -0.26939973 -0.5777593 0.11217006 -0.08681629 1.4669958 0.063259825 -0.20677477 0.03312082 0.45270044 0.30788296 0.61455375 0.6237629 -0.08198432 0.72068536 0.7903977 0.54733694 0.81281716 -0.52896535 -0.09502854 0.36236128 -1.6029466 -0.059913687 -0.5018602 -0.74240464 0.79111284 0.54364365 0.8603672 0.51440006 -0.18673418 -0.18539979 0.0069373767 0.2957714 0.1599834 0.28094864 -0.3309004 -0.34563985 0.12068651 0.40184414 0.34777302 0.14632641 -0.033973195 0.18593155 0.6272826 0.59124184 -0.4682922 0.5336521 -0.06642569 -1.5443083 0.9509536 -0.6013204 -0.23426597 -0.5247347 0.037071608
CL:0001023 0.59696436 -0.4051772 0.87525403 0.011247793 -0.56493706 -0.86143625 0.029554335 0.57814 -0.4956448 0.050572395 0.6872048 -0.9160942 -0.6251983 -0.26028934 0.60931736 0.71334416 -0.89550656 -0.011546658 0.44695118 0.30111262 0.76392716 1.4255654 0.25243795 -1.0423911 -0.022986798 0.31925574 0.4898702 -0.14045985 0.22743952 0.7608608 -0.19047679 0.45647022 -0.3201968 -0.49567845 -0.9406832 1.1454476 0.55300915 -0.51819766 0.69542783 -1.0397135 -0.339172 0.35559595 -0.15710585 0.31563976 0.08968888 -0.109326 -1.1742376 -0.21788394 0.33779097 0.21372595 0.5782589 0.9328327 0.029467018 0.6887005 -0.7668449 0.66726214 0.043241855 0.0020075052 0.049769364 0.24183232 0.048712105 0.74093795 0.83687913 -0.13372545
CL:0000603 0.51483244 0.026156215 0.77423024 0.53692955 -0.47269732 -1.0708784 0.040366426 -0.00096954446 -0.66647846 0.54770523 0.64970833 -0.117603466 0.851774 0.53696215 0.56697005 1.1173855 -0.62226725 -0.19016147 -0.50330573 0.12014252 0.6826438 0.5293076 -0.057429545 -1.0257696 -0.7277678 0.52680695 -0.42520714 1.1312356 -0.14192633 -1.2178043 -0.082624465 -0.18846187 0.69205624 -0.35935444 -0.22509424 0.68173873 0.9881641 0.69571763 0.3759752 -0.15417871 -0.8223896 0.7681625 -0.14084557 -0.1782558 0.54469556 0.34008044 0.1626446 0.91132325 -0.34744442 1.078786 0.29447907 -0.4135809 -0.43135935 0.21954277 0.7025427 -0.16513371 0.023769991 -0.2294992 -0.9041612 -0.3665999 0.22495876 0.12473137 0.20213228 0.5898888
CL:0000216 1.37848 -0.7063549 0.8616882 0.89877284 -1.0439655 0.12585028 -0.5543227 0.5217398 0.0026751973 -0.09736093 0.49982485 0.3321038 -0.5878682 -0.7426217 -0.1464015 0.26219013 -0.2064791 -1.2035434 -1.3140721 0.5366356 0.25208938 0.9019068 0.90327036 -0.97557235 -0.5240256 0.6287126 0.33543202 0.42585415 -0.09099651 0.25654322 -0.6304563 0.06356621 0.062340192 -0.076096565 -0.67426014 0.3830263 0.7783455 -0.4014985 0.40004668 0.17484063 -0.4907722 -0.09006793 -0.12676376 0.42311364 0.3105941 0.56946623 -0.900264 0.15575233 -0.05083336 0.38404658 0.73844606 0.2835676 -0.931663 -0.1393166 -0.9019694 0.09594075 -0.22345997 -0.3908877 -0.15381734 0.28535002 -0.084336765 0.1922607 -0.4596011 -0.50469357
CL:0000706 1.090647 0.17764458 0.22499247 0.2784022 -1.007992 -0.71154886 0.12529151 0.74342704 -0.76803297 -0.93417394 0.2910565 0.17317544 -0.18294102 -0.24002734 -0.0398792 0.12349808 0.44501895 0.11567812 -0.30919892 0.3167088 0.92130274 0.94002193 0.5760552 -0.049217787 -0.08104965 -0.4072534 -0.7406529 0.037449203 -0.010067855 -0.42361403 0.05411471 -0.059107043 0.17436735 -1.0934 0.29172906 0.2485638 0.69355595 1.0310531 0.91489315 0.352999 -0.8946966 0.51554817 0.41242278 -0.5592753 0.30089656 0.0043978784 -1.4985158 0.23474634 0.30673844 0.11957122 -0.0055329935 0.66660684 -0.15348189 -0.093086995 0.0032806427 -1.332396 0.68015295 -0.3731084 -0.13125911 0.08988663 -0.08315458 0.8698284 0.40418956 -0.11462219
CL:2000018 -0.15937813 -0.7503586 0.82365835 0.5593884 -0.32728386 -0.57110846 -0.36138806 -0.18590583 -0.10091023 -0.71904576 0.038158495 0.0033079812 -0.62321013 -0.9770391 0.4224849 0.6096688 -0.79016095 -0.43006095 0.38985556 0.8290815 0.6883326 0.94196224 -0.7603381 -1.1254413 -0.22221772 0.16511536 -0.7709553 0.45731494 0.62957054 -0.45771453 -0.7483418 0.18922989 0.30071187 -1.3272243 -0.26108864 0.31388748 0.886867 0.08972885 0.6619248 0.72348946 0.33642036 0.37191617 -0.084890634 -0.056557134 0.38877404 0.6785291 0.07730058 -1.1946545 0.90732 -0.16715209 0.01985137 0.42442223 0.13072547 0.26835003 -0.046488885 -0.11277023 0.31454632 -0.73295295 -1.1866324 0.6266694 0.48146966 -0.51671827 0.2566356 -0.29455048
CL:0002223 0.9298691 0.39445442 1.2950807 0.7185053 0.3048733 -1.132015 0.87697107 -0.5017789 -0.48475325 -0.74595165 1.5632756 0.35451597 -0.5718215 -1.1031849 0.42743355 0.2860627 0.123792484 0.03745437 0.14826146 0.20141771 0.48958156 0.80004025 -0.2275354 -0.27444288 0.6142493 1.2505225 -0.20808369 0.07277573 -0.6568605 -0.18417296 0.21059039 -0.84526175 0.50118506 -0.21406719 0.05928958 0.4173314 0.5025499 0.6881348 0.52157974 -0.6518276 -0.43058082 1.2257661 0.18358329 -0.05549937 0.859562 -0.022346623 0.06189648 -0.24947429 0.40101814 0.35192633 0.040645655 0.7681998 -0.14267123 0.06206282 -0.06021025 -0.06506701 -0.1677925 -0.07202982 -0.24687919 0.7312626 -1.0782875 -0.002060684 -0.58873045 -0.25306985
CL:0000389 0.9824751 -0.15413257 1.1660047 0.40437266 0.014683767 -0.9497788 -0.07883238 0.2781075 0.15421794 -0.19103773 0.62627465 0.26373467 0.24143544 -0.7852705 0.62109053 0.104222916 -0.50414217 -0.75398564 -0.98990804 0.81328285 0.07724661 1.0756813 0.21862668 0.36484522 0.24882461 -0.091551065 -0.1429224 0.39365038 -0.35171142 0.5062359 0.35539362 0.14996134 -0.8513722 -0.7833806 -0.8604058 0.3206595 -0.3913331 -0.09427394 1.0905201 -0.07797006 -0.20690286 1.0804619 -0.20154409 0.546194 0.15863258 0.70179313 -0.74813986 0.13361815 0.1869954 1.0222542 0.3017476 -0.090289064 -0.7594069 0.64322335 -0.31391057 -0.14248976 -0.40328404 -0.033462353 -0.49133822 0.7742242 -0.35972258 -0.10890657 -0.18301378 0.8301487
CL:0000508 -0.20653482 -0.09601371 0.13304897 0.6564012 0.035511695 0.12959225 0.55497885 0.795524 -0.31885448 -1.002055 0.71946174 -0.06855015 -0.32864246 -0.5536579 0.14001247 0.20884061 0.100561745 -0.26943165 -0.29435936 0.39772475 0.11556137 1.222401 0.71123344 -0.7832486 -1.0656112 1.4423674 -0.19569032 0.24972768 0.6462343 0.11459105 0.080196425 -0.238193 -0.3284676 -1.0938627 -0.45820108 0.358453 0.9842629 0.6365356 0.2476203 -0.1503084 -0.8442272 1.1423742 0.54380083 0.7221537 0.5557257 -0.38896942 -0.05020613 -0.30908436 0.15171139 0.0934618 -0.85234505 0.39726257 -0.045735188 0.24101375 0.35616916 -0.84700686 -0.468257 -0.47220376 -0.41723529 0.98991686 0.07272651 0.05470681 0.02270931 0.18627383
CL:0002525 -0.077618465 -0.46071443 0.6316712 0.33499277 -0.46897435 -0.8131214 0.49261603 0.36405855 -0.94930434 -0.079919636 0.7104794 -0.53048486 0.22749306 -0.48315847 0.075730205 0.7786559 -0.64449483 -0.6811395 -0.39215952 1.8580617 1.4457604 1.6263717 -0.66320837 -0.28161657 -0.7305313 0.82565385 -0.17972997 -0.10369386 0.124491535 -0.049121782 -0.6481416 -0.2418107 0.31384507 0.029008122 -0.6294795 0.8953193 0.9025283 0.32916975 -0.012032724 -0.76596016 -0.7479414 0.59847856 0.08944829 -0.12612066 0.2143954 -0.06944816 0.493094 0.34059373 0.22719096 0.6821431 0.67507994 -0.68342185 0.22563362 0.1902197 -0.16430606 -0.09142388 0.406512 -1.1461163 -0.68026805 0.16276522 0.1669589 -0.615113 -0.12004748 -0.7766878
CL:0002523 -0.053870346 -0.45498863 0.62586355 0.3518045 -0.4439188 -0.7977083 0.46857047 0.35905772 -0.9721822 -0.04754539 0.73049325 -0.5399304 0.22605409 -0.48800564 0.09216341 0.8001791 -0.6355875 -0.6509873 -0.3627337 1.886359 1.4324042 1.6523033 -0.66456485 -0.22088483 -0.71618444 0.88373154 -0.14177456 -0.112530515 0.10205874 -0.012539086 -0.66199523 -0.24329196 0.34181035 0.008367199 -0.58387357 0.861246 0.95803016 0.32479945 0.013497395 -0.74807453 -0.74530697 0.57681453 0.10468878 -0.09133718 0.20209503 -0.06563661 0.44467783 0.33907336 0.21287821 0.65766346 0.7015074 -0.69700074 0.22632647 0.23048058 -0.20194262 -0.11097263 0.40784362 -1.1366253 -0.696004 0.1641165 0.12497759 -0.5897432 -0.11714675 -0.76849824
CL:0000182 0.7868348 -0.3446858 0.81241 -0.04219131 -0.23214342 -0.6829588 0.5876712 1.1088324 -0.6376929 0.31452394 0.636174 -0.09286571 -0.40406877 -1.004607 -0.5416112 0.74908435 0.30537045 0.54872966 -0.7531494 1.4903036 -0.18644728 0.93837196 0.6190407 -0.5953789 -0.89073837 -0.26454702 -0.3602513 0.18074906 -0.6835539 -0.04912909 -0.4374302 0.39261127 0.5078621 -0.33822104 -0.57002956 0.7687254 0.72166705 -0.21979211 0.56378 -0.23697893 -0.45928687 0.72053456 -0.3612796 0.22325519 0.7489649 0.072474405 -0.28539085 -0.09148408 -0.20133112 0.3087933 0.822294 -0.3724578 -0.16854975 0.30909342 -0.39127848 0.084747314 0.30753908 -0.10794234 0.3544132 0.59132856 -0.44571233 -0.039936658 0.21551779 0.28939983
CL:0002398 0.7052138 -0.33226857 1.0269823 0.70562476 0.5241537 -1.1218804 -0.23865275 -0.23087502 -0.5996886 -1.2459807 1.7369914 -1.421154 0.37685913 -1.085062 0.015282065 0.65000194 -0.85827065 -0.24408907 -0.008557084 1.4583706 0.41332486 2.094829 -0.4086299 -0.10935811 0.17473152 1.589563 -0.275729 1.0185882 -0.7249471 0.04187578 0.643909 0.13309717 0.23183674 -0.681307 0.98992026 0.63185203 -0.09437527 -0.7033235 0.15696241 0.2598654 -1.1551837 -0.2277524 -0.08404786 -0.17396313 -0.40772563 -0.21080743 0.23035777 -0.71838 0.802358 0.20047832 1.119557 0.2670916 0.09941888 0.49043244 -0.3307743 -0.2457815 0.11808126 -0.83234984 -1.4898779 1.3424199 -0.8313046 0.032862037 0.0796915 0.025880523
CL:0002386 0.34522775 -0.8594613 0.93809 0.54895264 -0.78105485 -0.9037302 0.12445991 -0.9789806 -0.30587947 0.08253087 1.7149887 -0.89183205 0.113217495 -0.071463324 0.2839656 1.0536157 -0.72596097 -0.54898375 -0.06925492 -0.051408947 -0.054589134 0.70091754 -0.26709735 -1.0633748 -0.9989263 0.68950844 -0.8116443 0.9523898 -0.4878402 0.14310016 -0.08507575 -0.39657038 -0.16045746 -0.07436662 -0.35577488 0.7061799 0.6076101 1.0836902 1.0931544 0.22845335 -1.0747204 0.106883705 0.45671275 -0.21470091 0.9163809 -0.447976 -1.2229737 -0.42421603 0.89983755 0.20966066 0.9095909 -0.50934654 0.75663733 1.1573049 -0.31852373 0.12907432 0.048616216 -0.2719674 -0.4599956 1.2456421 0.07006708 0.3917267 0.23659368 -0.4117354
CL:0002051 -0.24652208 -0.2327625 0.47208995 0.10759588 0.25209504 -1.1505505 0.8722089 0.40184695 -0.29185748 -0.6143254 1.0407732 -0.14224312 0.060796417 0.32923082 0.07477528 0.37638393 -1.1653355 -0.9786853 -0.14474645 1.0538124 1.266412 0.71258336 -0.24134168 -0.60926116 0.102161 0.29147983 -0.25613853 0.081129335 -0.32369804 -0.40974042 0.31128252 -0.05150248 0.41637453 -0.8313606 -0.43143994 0.07561615 0.25378084 -0.40795982 1.5593802 0.63255984 -0.06280211 -0.32308307 -0.17681947 0.14979234 0.35807925 -0.53214717 -0.6917698 0.39453658 -0.48447537 0.2508208 0.5671207 0.53500426 0.37065968 0.65463233 -0.88149047 -0.15390137 -0.7483214 0.017747482 -0.8939657 -0.12089733 -0.91127414 0.19973789 -0.17025556 -0.17223527
CL:0002661 0.22062378 -0.11376332 0.54625016 0.377353 -0.92831486 -0.79822415 0.3447145 0.8816666 -0.5851871 0.049498435 0.52832943 -0.666788 -0.44583058 -0.15900524 -0.08089505 -0.18470982 0.11934194 -0.7255896 -0.6652095 0.5648383 1.0131952 0.31464317 0.89718664 -0.71744883 0.31649265 0.34333476 0.020099511 0.39816266 0.41597474 -0.6491491 -0.27184644 -0.81682205 0.015349231 -0.8464835 -0.2519407 -0.26339188 0.5436011 -0.81747216 -0.05939331 0.01800452 -1.1716803 0.60222083 0.6759598 -0.020326171 0.3782145 0.5594619 -1.5594245 0.14738667 -0.32293728 0.47846884 0.62873054 0.40949488 -0.76335794 1.0150495 -0.46671683 -0.18502961 -0.69630736 -1.0125208 -0.02160527 0.6617901 -0.14275812 -0.14199628 0.3962762 -0.45145208
CL:1000742 -0.18393126 -0.1957822 0.20213085 0.24839114 -1.2033097 -1.0489355 0.49593872 0.4767733 0.23854676 -0.25414228 0.43047297 0.24405827 0.35097203 -0.34276828 0.6357027 -0.22899339 -1.2779496 -0.26340643 -0.35929877 0.7176524 1.4096859 0.4765083 0.22399281 0.35863265 -0.2727904 0.17181805 -0.5130863 0.8617468 0.13464141 0.21618222 -0.52453357 0.36174715 0.31770584 -0.56442374 -0.8521146 0.7448306 0.99595904 0.4740886 0.17517303 -0.6082664 0.22847834 0.7295042 -0.19923894 -0.69058204 0.64465994 0.5837732 0.09011649 0.22283073 0.4519085 0.43558416 -0.05598424 0.088218145 0.48927444 1.1163832 0.35269096 -0.4102671 0.37323087 -0.88185495 -1.0553092 0.16569106 -0.4512745 -0.17281984 -0.07277447 -0.43680635
CL:0002309 0.3908235 0.017301932 0.05187447 0.85258305 -0.29420307 0.007186541 0.81572795 1.3220268 -0.026235053 -0.6111226 0.9220177 0.11317076 -0.07282576 -0.75563395 1.1343534 0.9542725 0.14714965 -0.8419266 -0.8735394 0.39487258 1.0183011 0.24709249 0.0815693 0.3751242 0.27002034 0.79384017 -0.2884453 0.3883212 0.44302598 0.26653963 -0.09188323 -0.1468362 -0.38195 -0.44999817 -0.15494406 0.9844144 0.4912748 -0.30352962 0.41219983 -0.49585083 -0.41962263 0.8450584 -0.2945131 0.317115 0.56180024 0.7468341 0.24785446 -0.7292737 1.0065132 -0.029616565 -0.105403066 0.176201 -0.05785416 0.636037 -0.14108758 -0.8388708 -0.06749121 0.21272644 -1.0498143 0.47606054 -0.6113533 -0.23912448 0.56972885 -0.3923144
CL:0002291 0.8633123 -0.28327495 0.4389126 -0.24245997 -0.37117878 -0.87652475 -0.3275574 -0.020489845 -0.52531266 0.17641886 0.35742334 -1.569135 0.07650143 0.03509531 0.47450617 1.3288871 -0.7294983 -0.79876167 0.20097835 1.1164038 1.303194 1.0950361 0.24111608 -0.6832652 0.69942605 0.91791874 -0.3098729 0.4625176 0.08669346 0.36172917 -0.36528248 0.36623046 -0.081804715 -0.9244587 -1.1864493 0.7308114 -0.04422071 0.8265094 0.94223475 -0.3304763 -0.56631577 0.7509207 -0.64799285 -0.56455845 0.2985795 -0.12915438 -0.4432424 0.19743693 0.123137146 0.47948408 -0.26493415 -0.23790593 -1.0052309 0.4006822 -0.2451041 -0.61635345 0.42428806 -0.7183308 -0.34540424 0.18874972 0.1664775 0.38643074 0.49654752 -0.3390734
CL:0002099 0.59456265 0.03694866 1.1721927 1.2992312 -0.0631378 -0.6771922 0.50568825 -0.017430563 -0.86936444 -0.08098358 1.012847 -0.3572792 0.04704407 -0.5010158 0.48565385 1.0229648 0.1454537 0.39867684 0.04578396 0.33663943 0.029375877 0.50547844 -0.17992464 -1.1608255 -0.008448064 0.48895106 0.7520754 0.3249834 -0.59415424 -0.47899488 -0.08385237 -0.28307602 0.39652863 -0.122257635 -0.53120387 1.4364116 -0.24442787 -0.3265051 0.058582366 0.16225205 -0.46682832 -0.21604621 -0.21232079 0.09250105 0.6814289 0.08884383 -0.7162108 -0.19004032 -0.16951771 0.62333953 0.01481284 0.5353725 0.5007659 0.18231915 0.27604705 -0.03428403 -0.47754344 -0.08264079 -0.52204573 0.4627572 -0.8023217 0.919891 -0.98986083 -0.36272785
CL:0001026 0.6858602 -0.48249194 0.86720115 0.050006665 -0.5074217 -0.76707613 0.047671013 0.6073437 -0.46815628 0.108915314 0.7602329 -0.7913069 -0.5993727 -0.30107865 0.69722605 0.7262975 -0.69189185 -0.005113259 0.36929396 0.39402038 0.7361434 1.2954743 0.27713588 -1.1037612 -0.15304664 0.24045525 0.5054924 -0.15895581 0.18390653 0.77396196 -0.21655081 0.4454652 -0.3136415 -0.46808538 -0.9281701 1.1287254 0.61245865 -0.4790785 0.57086027 -0.9086252 -0.17782402 0.4733304 -0.11347859 0.24391407 0.039138068 -0.12685208 -1.0894139 -0.2977857 0.46430376 0.14101377 0.5137918 0.8253848 0.061298817 0.6118013 -0.7241192 0.63577354 0.072829925 0.0776596 0.01173005 0.17264056 0.006576629 0.7494255 0.8713401 -0.081409894
CL:0002395 0.2773485 -0.7759923 1.5510402 0.116460696 0.16254084 -0.90264726 -0.435012 0.034730434 -1.2034951 -0.55454785 1.7351216 -0.7071865 -0.49912295 -0.08085289 0.50905496 0.4234469 -0.39638174 0.36822408 -0.27478337 1.4563227 0.4696471 1.3129898 0.0046248804 0.2020529 -0.4372495 0.8061019 0.066834606 1.3116424 -0.2072755 0.45456225 -0.05297581 0.6851772 -0.14944983 -1.0503095 1.2105044 0.21868166 -0.10072221 -0.8142404 0.722704 0.5678629 -0.69046986 -0.20961617 -0.18377003 -0.69907314 0.07514744 0.21373157 -0.17635444 -0.4662881 0.77132714 0.28761348 0.6433726 0.42295617 -0.56947297 0.806754 -0.9934104 -1.013755 0.44215795 -1.3753524 -0.617182 1.5459672 -1.1171175 -0.033623368 0.15256654 -0.57354885
CL:0002181 0.32800087 -0.41675612 0.25681525 0.9433027 0.056069896 -0.40089065 0.50781405 0.9756554 0.38465077 -0.8970217 1.0275124 -0.74482524 -0.4788092 0.67516774 -0.1835353 0.68640274 -0.19286457 -0.21330494 -1.0298599 0.1606266 0.799682 0.93928194 0.5030849 -0.8298919 -1.0234052 0.58467364 0.39976934 -0.025933666 0.15853466 0.3234891 -0.0598653 -0.12762769 -0.6374997 -0.38419148 -0.08526327 0.43690804 0.4126509 0.057467476 0.76499057 -0.430986 0.30827352 1.2588036 0.2127706 -0.34337217 0.70965576 0.20398979 -0.20916557 0.07516625 -0.18431906 0.31712815 -0.034919407 0.84940547 0.47809017 0.41918764 0.8202914 0.3639745 0.44203454 -0.13963237 -1.2516885 0.36954054 -0.83283865 0.19501305 -0.15611528 -0.045549113
CL:0002265 0.7296961 -0.7265352 0.18947838 0.7886034 -0.87130433 -1.3647 -0.4099768 0.07638857 0.18792965 -0.016379109 -0.17938715 -0.23835827 -0.21156286 -1.2362846 0.7721148 0.9988755 0.34228167 -0.5780635 -0.24291398 0.7755172 0.81435215 1.0044206 0.2404686 -0.6674319 -0.7383943 0.25911003 0.00528567 0.6727715 0.19644049 0.51063436 0.2448287 -0.70008755 0.6034696 -0.39530826 -0.5030159 0.38010427 0.10932146 0.43474033 0.0341394 -0.059337504 -0.43728063 0.6496107 0.7151781 0.20008805 0.03168187 -0.3032782 0.2972123 -0.18754408 0.36193433 -0.35345963 -0.25448737 0.45402402 -0.026654715 0.59862417 0.84750223 -0.7350113 -0.056101594 -0.7857392 -0.7503815 0.80257756 -0.6612553 -0.06243763 0.84405726 -0.62211126
CL:1001221 -0.25458774 -0.57636243 0.19198765 -0.027732505 -0.7657924 -0.38122535 0.390712 -0.3313558 -0.3366687 -1.0063603 0.58951336 -0.2723616 0.3927245 -0.09751423 0.53706574 0.33640802 -0.74811435 -0.34502575 -0.59416467 0.5837202 0.8352717 0.78633565 0.23301774 -0.74196553 -0.7146803 1.0338713 0.13052137 -0.4919174 0.39846814 0.15915692 0.26148143 -0.50310355 0.51832736 -0.8344855 -0.5527629 0.91191065 0.34914213 0.61140174 0.13249059 -0.68914807 -0.483743 0.67972 -0.055380914 0.84376246 1.434332 -0.0020216876 -0.60372716 -0.6879353 0.5392367 0.010038498 -0.032697614 0.67464453 0.18460506 0.8465659 -0.8659843 -0.36768997 0.25840357 -0.82395023 -0.084992506 0.52401 -0.5184488 -0.42172906 -0.29252288 -0.7458819
CL:0002290 0.86037666 -0.31910816 0.4589981 -0.2497942 -0.44437325 -0.9117978 -0.36704808 0.026155824 -0.47727227 0.25912803 0.3539513 -1.5180714 0.11140253 -0.05184346 0.4668239 1.3037382 -0.74669963 -0.8746255 0.1558842 1.1620831 1.3313178 1.0535667 0.2587198 -0.6571155 0.702757 0.88318527 -0.28617233 0.40974313 0.1207054 0.3022767 -0.4200697 0.31952044 -0.11736675 -0.9079827 -1.190743 0.7554287 -0.0035858692 0.8369158 0.99577516 -0.3295683 -0.5329188 0.7276878 -0.65575176 -0.5261426 0.39841652 -0.14001943 -0.44948316 0.17060013 0.119680695 0.5331082 -0.30722925 -0.20821 -1.0275941 0.3531614 -0.1569944 -0.587022 0.38836914 -0.6582347 -0.3371158 0.18100056 0.21280749 0.4010578 0.5661246 -0.37215495
CL:0002122 -0.10536434 0.021235744 0.87642294 0.96297437 0.43230245 -1.9145856 -0.10334349 0.43348444 -0.338251 0.401973 1.4143429 -0.82463497 0.0361967 0.06948839 -0.14331135 0.8082466 -1.1305262 0.046813667 0.01028113 1.4191213 0.24113882 0.5070007 0.15894802 -0.78815293 0.30257744 1.4441527 -0.5505723 -0.053335365 0.23779747 -0.24210814 0.13077086 -0.17367798 -0.48206934 -0.96510124 -0.49706256 0.046128284 0.5800594 0.30783424 0.19940779 0.07431348 -0.7152999 0.6722013 -0.29377812 0.3327422 0.791067 0.52150047 -0.37966958 1.3186122 -0.013689896 0.41091445 0.36032015 1.0156788 1.1175022 0.12466044 -0.9915156 -0.6545543 -0.465731 -0.11267787 -0.6942175 1.2231885 -0.59227186 0.24356543 -0.86098194 -0.07453078
CL:0002310 0.9432713 -0.49147218 0.46178082 1.1852238 -0.37447542 -0.69161665 0.45776644 1.3589883 -0.4383086 -0.5867308 0.58911073 -0.58678836 -0.7113236 -0.19484127 1.0769709 0.28518948 -0.5572787 -0.5698786 -1.0427264 0.73416203 0.67662615 0.07774473 0.2243609 0.09469273 -0.22953652 0.85994637 -0.2789472 -0.21828337 0.6761441 0.50157356 -0.21367419 0.293198 -0.06810692 -0.5300522 -0.47117695 0.87788266 0.16061547 -0.6350369 -0.16277263 -0.30305845 -0.13126382 0.53039885 0.36533788 -0.084025554 -0.019149218 0.54571104 -0.060490336 -0.7820924 0.86138684 0.31234142 0.42324722 0.11937818 -0.05870557 0.33824417 -0.44134372 -0.728259 0.0134649165 0.23978204 -0.7087109 0.487127 0.33011347 -0.12739567 0.3744725 0.09967743
CL:0002187 0.67347354 0.69410396 0.37038958 0.91865253 -0.31750533 -1.1579077 -0.03963842 -0.116552584 -0.36668196 -0.9845138 1.6115755 -0.8600851 0.10587422 0.31538078 0.03382311 0.16360499 -0.3751622 -0.45073748 0.025730161 0.22674465 0.3219084 1.2305149 0.44023892 -1.1462322 0.33746052 -0.040230583 0.5439679 -0.5211865 -0.20642854 -0.09006078 -0.75598735 0.29834726 0.524548 -1.8697479 -0.3606689 0.18735042 -0.4919998 -0.36096916 1.3292791 0.7195416 -0.73586226 0.39656103 -0.4914347 0.085103355 0.8377685 -0.3670953 -0.23261985 -0.722637 0.38058943 0.60290253 -0.37621844 0.34404588 -0.30058283 0.33437324 -0.24394861 -0.069657244 -0.81374586 -1.4119426 -0.7245315 1.4023389 -0.5270664 0.8549968 -0.21611385 0.24353403
CL:2000062 0.10818861 -0.113352895 0.33694047 -0.6085595 -0.6178453 -0.18866505 0.28515956 0.03284915 0.59781545 -0.600324 1.0063006 -0.16507158 -0.4212068 -0.68656886 -0.18806732 0.28379658 -0.85925376 -0.32775438 -0.18886049 0.46212235 0.8273255 1.2666435 -0.25605196 -0.64338005 -0.23796585 0.26413903 -0.49208602 0.27155164 0.53725743 0.06779421 -0.18474327 -0.20385683 0.03680013 -0.16215654 -0.049598515 0.4525653 0.46402967 -0.21942256 0.8232527 0.33074176 0.36602834 1.4412684 0.24672095 -0.5779809 0.65861374 0.9806117 0.39554957 0.057556354 -0.3667872 -0.064791605 0.46788865 -0.19541663 -0.16063964 1.2105788 0.3664855 -1.3208781 -0.08145687 -1.1219873 -0.39996985 0.033313837 -0.40681615 -0.123439625 0.4556698 0.15902089
CL:0000580 1.3167212 -0.35459733 0.81253946 0.3320366 0.13998605 -0.80470914 0.35504574 -0.185986 -0.46746713 -0.30428976 0.14260651 0.34734184 0.27845538 -0.18713485 -0.193308 0.9233236 -0.8642187 0.0010426473 -0.19812396 0.5979793 0.06974275 0.7404327 -1.0051153 -0.89599454 0.97728556 0.34392622 0.06323021 0.93848944 -0.11401518 0.24946603 0.10531682 -0.25281346 -0.69879806 -1.0268626 0.06354015 -0.44426015 0.60385287 -0.32849714 -0.11781552 0.44347215 -0.27728388 -0.4423088 0.7240858 0.113172054 0.36498943 -0.2981686 -0.6502082 -0.6213942 0.41073963 0.30295476 0.35470578 -0.2367495 0.14039281 0.9284408 -0.85070235 -0.2452878 0.09160934 -0.6376704 -0.49078736 0.8754304 -1.1533741 0.25850275 0.47388235 -0.48706028
CL:0002389 0.22130413 -0.03488468 0.44437042 0.63864267 -0.24671648 -0.29122898 0.03595034 -0.8810623 -0.5216726 -0.002491156 1.4715966 -0.17049183 0.12474576 -0.006228159 -0.21419856 1.0403689 -1.2046323 -0.02617446 -0.45207414 0.56284183 0.21850261 0.4086717 0.10808721 -0.87873405 -0.40032306 0.0437922 -0.80779403 1.0342997 -0.23776384 -0.17778032 0.19080354 0.1746357 0.22834088 -0.25498942 -0.632405 0.7442705 0.533943 0.9669108 0.5091773 0.16104385 -0.43319154 0.33665624 0.5860506 0.050497293 0.41584298 -0.19487822 -1.2202842 0.002399745 0.77732337 0.05077502 0.92438465 -0.5851397 0.007949574 1.2451533 0.048496503 -0.23464502 -0.30683953 -0.36452892 -0.61456144 1.075049 -0.190529 0.20291673 -0.04570446 -0.42667577
CL:0000437 0.43603444 0.23672512 -0.04980852 0.75693405 -0.34386536 0.007959217 0.77891916 0.9453272 -0.13321868 -0.50583154 1.2739246 -0.23748417 -0.06363072 -0.62140065 1.2321638 1.0349033 -0.014505122 -0.7212775 -0.81136054 0.2651207 1.1922653 0.1062174 0.018066378 0.30880183 0.24754004 0.8946596 -0.44568247 0.52539307 0.63607484 0.03754864 -0.3608753 -0.089984365 0.1996932 -0.29375646 -0.38822952 0.9934939 0.4103169 0.078665204 0.16350093 -0.7890786 -0.7407255 0.747935 -0.28012854 0.11907365 0.43867865 0.833383 0.15840924 -0.82038134 1.0660928 0.26231787 -0.3013561 0.021373024 -0.090806276 0.7050197 -0.26109874 -0.8729793 -0.06312793 0.2051783 -0.58204454 0.39402378 -0.47436774 0.019399937 0.40198752 -0.40657908
CL:0000577 -0.16455524 -0.20579879 0.8101986 0.54460377 -0.08774992 0.14434978 0.899797 1.3770444 -0.8889055 -0.5447134 0.9010724 -0.114938885 -0.5382796 -0.67011184 0.9901816 0.86010456 -0.4356685 -0.5541936 0.33353525 0.3220342 0.4824309 1.1493063 0.33826137 -0.82057595 -0.7218535 1.548566 -0.3822108 0.23795488 0.7775772 -0.24597704 0.44331813 -0.16130073 -0.6081322 -1.3158561 -0.3886253 0.6443161 0.7885351 0.32710287 -0.57752186 -0.08937674 -1.0589875 0.78870237 0.25075263 0.8509577 0.6752248 -0.21747346 -0.0131301265 -0.6966149 0.42375946 0.24204075 -1.0962808 0.52566063 -0.10791074 0.10939608 0.0682458 -1.0016798 -0.35617545 -0.67022353 -0.8643652 0.844818 0.46115872 -0.23601821 0.58489895 0.5427391
CL:0000715 0.36308706 -0.13699153 0.6982834 -0.07182371 -0.31205344 -1.7706611 0.61090374 0.42546684 -1.2162409 -0.14369261 0.32733247 -0.9717665 -0.4105378 0.019019522 0.4915915 0.16147022 -0.25101662 0.5346053 -0.34500152 1.0670816 0.6289388 0.579856 0.026260503 -0.74843264 0.36397785 0.08212273 0.35834804 0.7955476 -0.087217554 0.09569981 -0.27587506 0.17355883 -0.14376232 -0.83429146 -0.3376459 0.31466025 0.8639622 0.4310601 0.06838104 -0.7285795 0.13044345 1.4457567 0.1213887 0.92395383 0.55157304 0.18200307 0.19217318 -0.27860308 0.21178938 0.36619183 0.16533591 -0.013379329 0.43018657 -0.010334475 0.116304524 -1.105004 0.1916097 -0.2945759 -0.6770064 0.13280478 -0.39217064 0.14210355 -0.3629493 0.34264508
CL:0002136 0.42554697 -0.4037283 0.87436205 1.299768 -0.120261826 -0.94308305 0.1704487 -0.20141116 -0.8776731 0.05295196 0.8454281 -0.24174212 0.059782233 -0.22607157 0.054912016 1.2617519 0.1212563 0.4033993 -0.4225115 0.6612123 -0.032372244 0.58571887 -0.17897716 -0.90669745 0.09526798 0.8368984 0.77414644 0.3470921 -0.53732187 -0.42053604 0.1900245 0.06912163 0.725123 -0.08931265 -0.63330895 1.4147727 -0.3313434 -0.013150695 0.0798072 0.2562909 -0.3606902 -0.10977504 -0.14160453 0.1876455 0.57114315 0.3818791 -0.78670895 0.028619083 -0.17168224 0.2639195 -0.29948056 0.45987192 0.5972878 0.5709309 0.3772581 -0.0454153 -0.56724834 -0.3842298 -0.059047066 0.6988884 -0.3258266 1.0258739 -0.5749778 -0.0034744942
CL:0002112 0.07076414 0.034635834 1.756055 -0.4138605 -0.8320314 -0.70279044 0.5065006 1.06139 -0.29647124 0.14360867 0.8230737 -0.1553993 -0.5897362 -0.2809628 1.1198009 1.376546 -0.67878944 0.051974718 -0.43808907 0.60945857 0.7910899 -0.25910848 0.73324126 -0.05366264 -0.58327425 1.3915843 0.060368944 0.6160302 0.4073519 -0.4266628 0.6006163 0.42978808 -1.3814887 -0.40918392 -0.38465002 0.56479204 0.8420213 -0.29939818 1.2719452 0.08047059 -0.718005 1.3958837 0.8513163 0.57680386 -0.08246178 0.5442061 -0.744295 0.14100628 0.40900618 0.4869992 0.22772782 -0.607705 0.08239795 0.37404898 -0.94728273 -0.5750137 0.520705 -1.0198045 -0.16398418 0.44631243 -0.44018757 -0.28960878 0.75028175 -0.37718123
CL:0002142 0.61538154 -0.34434143 1.0740942 0.563091 -0.54970044 -0.60153574 0.1120171 0.7066166 0.00112335 -0.4405706 0.8390769 0.055528224 -0.21383364 0.21282847 -0.19425951 -0.30990067 0.15844525 0.3962533 -0.02138717 -0.29108882 0.7010078 1.7148684 -0.14139506 -0.067599304 -0.20182404 0.5763022 -0.333618 0.72626275 -0.03889059 -0.8863498 -0.11307675 -0.49381933 0.079218544 -0.31954238 -0.33127895 0.14258654 1.3490543 -0.33395386 -0.3883524 -0.3919797 0.43132037 0.39093024 -0.21305156 -0.33034587 0.659288 -0.39268878 -0.9418206 0.19623294 0.81584376 -0.027050646 0.3024468 0.35742113 -0.5234303 0.1432318 0.07368362 0.18444961 0.4549249 -0.5217127 -1.095343 0.811074 -0.58128595 0.5893675 -0.45481208 0.25066292
CL:1000839 0.6674561 0.25912577 0.12294895 0.6278839 -0.527291 -1.1439707 0.414419 0.058124274 -0.38499537 -0.76604325 0.71202886 -0.12765259 -0.61665773 -0.57860255 -0.050356545 0.29289427 -1.280197 0.1082297 0.46415037 0.82348585 0.7469763 0.4924987 0.20732418 -0.44413117 0.25760743 0.32345432 -0.17399338 -0.42692122 -0.24724941 0.27535743 -0.2774338 0.39480224 0.67405784 -0.4105035 0.16396062 0.022101728 -0.29702622 0.741735 -0.5513316 0.14587077 -0.42873332 1.4721174 -0.20912638 0.7924699 0.7875995 0.07434947 -0.7132608 0.54879946 -0.20159505 0.95768976 -0.04033615 0.38522837 -0.054281503 0.7463282 -0.4334009 -0.6003438 0.6867927 -1.3032318 -0.74564326 0.3187878 -0.07754679 0.43193772 0.2568879 -0.5842706
CL:1001286 0.47843435 -0.78098553 -0.17119598 -0.23676747 -1.0927624 -0.7080005 0.806215 0.29617903 -0.14164431 -0.96155345 0.7351444 -0.1553962 -0.011692767 -0.09474672 0.1821717 0.85937774 -0.58869624 0.55621636 0.1326248 1.0520858 0.6199323 1.1588057 -0.55941993 -0.9571925 0.05175138 -0.08303114 -0.08270275 0.46554303 0.8641846 0.07858802 0.6339871 -0.4168782 -0.22764024 -0.19883901 -0.6454591 0.6318599 0.09927325 0.21603307 0.068065174 -0.018740216 0.1526977 0.7765835 -0.08977809 0.75817984 1.2954866 0.13730264 -0.6087264 -0.2768289 0.8842046 0.68311375 0.4301456 0.6008594 0.31744084 0.73767257 -0.7302914 -0.27702817 0.32434666 -0.5644615 -0.22682561 0.012347337 -0.53540677 -0.5691202 0.02883954 -0.42734367
CL:1001430 0.30897006 -0.31566012 0.88734096 0.7159749 0.15647535 -0.8269087 1.0996585 -0.20287766 -0.77849597 0.47452974 0.46448618 -0.47198287 0.48779145 -0.06604261 -0.24367249 0.68527234 -0.25795382 -0.5844164 -0.5208742 0.70732105 -0.3706146 0.71001303 0.16870111 -0.9287323 0.52774733 0.4794891 -0.53207695 0.6482733 -0.22627221 -0.14546834 0.35496244 -0.69790936 -0.06674006 0.055074338 -0.8012147 0.9351405 0.4435682 -0.032236323 0.19337994 -0.47933602 -0.049228802 0.7433003 0.73520786 0.13653827 -0.16495025 0.66071457 -0.8649645 0.109535396 0.27105415 1.1549141 -0.424162 0.7208449 0.40464827 0.81391156 0.39528424 -0.591699 0.17321114 -0.44213808 -0.35355762 0.8444898 -1.1516448 0.13639872 0.79405767 -0.0584759
CL:1000377 -0.017811093 0.022243304 1.2727144 0.1694727 -0.50769347 -0.440599 1.0271004 0.3561647 -0.22500083 -0.7165506 0.7450016 0.25168684 -0.4649418 0.40222877 0.83631325 1.1738361 0.45906532 -1.3028818 0.36808115 -0.17560704 0.31405857 0.73423916 0.16250017 0.0011559828 0.39168826 0.80138105 0.4109343 0.7881054 0.26632777 -1.1507667 -0.20836289 -0.11015448 0.24940333 -0.6840499 -0.054744516 0.58159786 0.14698249 0.010092158 0.21529332 0.4998312 -0.28426048 1.228839 0.07889435 -0.86087304 0.77142334 0.56861293 -0.4305299 0.29371753 0.2910444 0.4715465 -0.565059 0.7803756 0.23257925 0.00806234 0.32498312 -0.8617085 -0.3044477 -0.20671487 -1.3953699 -0.04215732 -0.22244495 -0.09890109 0.20040365 0.36544704
CL:0002081 1.0891565 0.8906295 0.10366799 -0.11928603 -0.29270273 -0.50232786 0.7768811 0.09728275 -0.459545 -0.59984994 0.16185822 0.21119551 -0.34104767 0.2732994 -0.16640869 1.0070322 -0.71335006 0.38266316 -0.6650633 -0.2088118 0.956062 0.39456 -0.17699972 0.020116013 -0.84747726 1.0914804 -0.01554217 0.0816999 0.12378653 0.10462739 0.21302807 0.42758143 -0.24295573 -0.63662004 0.00045793995 -0.03537836 1.1542038 0.10744166 0.40455303 -0.28090987 -0.25229734 -0.38557547 0.4134769 -0.36173606 0.85401565 -0.1373849 -0.99155307 0.42442903 0.47227326 0.5937298 0.16110517 0.49714226 -0.39319214 0.2528939 -0.18774693 -0.32059065 -0.28487363 -0.9020275 -1.3104914 0.46882966 0.036181193 0.56043625 0.0029121952 0.5185912
CL:0002177 1.104667 0.5052809 0.37316534 0.75047886 -0.3537309 -0.14258319 0.20144625 0.8511538 0.17663373 -0.8022248 0.39152268 0.11094658 -0.24591161 -0.23143423 0.3560689 0.7203676 -0.049087863 -0.43040678 -0.9457576 0.5644743 1.3172665 -0.20433365 0.52873147 -0.22632378 0.46522698 0.9999214 -0.29187357 0.21476266 0.41569325 0.6835863 0.08893294 0.08139931 0.16287242 -0.658436 0.18870871 0.36300376 -0.03750047 -0.2033697 0.20305821 -0.6573677 -0.6261017 0.34694612 -0.11263313 -0.45206416 0.6481843 0.71623296 -0.7603514 -0.67177856 0.19381142 0.95820254 -0.097942285 0.6718953 0.38094154 0.34388375 -0.65688044 -0.69371134 0.2855063 -0.23836635 -0.8907405 0.058142714 -0.07098058 0.46004018 -0.20642914 0.4983891
CL:0008032 0.43708366 0.10285308 0.605764 0.22514917 -0.10271992 -1.1760044 0.8758938 0.29949582 -0.29739967 0.2308483 0.7302263 -1.3160211 -0.44548336 -0.7009334 0.6457477 0.51065713 0.18914162 -0.5939963 0.34429976 1.1967329 1.4672462 0.95450914 0.14822705 -0.47090378 0.6340536 0.752309 0.06882053 0.2465485 -0.1833288 -0.5268816 0.42672873 -0.31953138 0.29043445 -0.45758933 -0.9117534 -0.44494137 0.89288384 0.86369616 0.0834182 0.012019316 0.08159108 0.20594844 -0.20850407 0.109549515 0.11238416 0.76960975 -0.41757375 0.42439848 0.7778759 -0.24996802 0.19562212 0.50305045 -0.50835466 0.5408834 -0.84782314 -0.7783767 0.13769852 -0.41438627 -0.38731307 -0.18473084 -0.49915177 0.15163721 -0.32261848 0.42021397
CL:0002146 0.58176094 -0.41303 1.0919416 0.5103081 -0.5289069 -0.6166308 0.11773962 0.61001974 -0.04947418 -0.41116345 0.84071267 0.07185657 -0.18429999 0.1875513 -0.15568177 -0.24788325 0.17011656 0.42573568 -0.012486245 -0.22811665 0.6917104 1.6780039 -0.18071179 -0.11466638 -0.14654288 0.6159547 -0.36669528 0.81166 0.01692833 -0.9067058 -0.09793838 -0.4812084 0.027377564 -0.30948943 -0.33532882 0.16926979 1.3970184 -0.34397665 -0.34669632 -0.37947318 0.4077942 0.39499336 -0.23850001 -0.2980137 0.6941465 -0.40871 -1.0098048 0.20507807 0.7528925 0.0086144535 0.3815256 0.33584064 -0.48569134 0.18263267 -0.040219534 0.16250749 0.49121097 -0.5102341 -1.1053712 0.87683856 -0.5856233 0.5257557 -0.40332076 0.20347194
CL:0000237 0.6963089 0.66093355 0.5385836 1.0350266 -0.4426982 -1.004543 0.07410653 0.46521795 -0.8845565 -1.0022441 1.1630911 -0.46433324 0.94055426 -0.20161565 -0.4331691 -0.03426922 -1.1291425 -0.28511775 0.39932445 -0.2522198 0.86878616 1.3840199 0.7774009 -1.0496937 0.1339137 0.8146004 0.050585866 -0.42324957 -0.37871084 0.35687348 -0.96203005 0.2575834 1.0052558 -1.1858219 -0.805484 0.07528827 0.84560674 -0.45798105 0.95735544 0.3738223 -0.004096099 0.13525832 0.026353508 -0.124327615 0.20016012 -0.32369098 -0.08852863 -0.60921437 -0.025775066 0.37998727 -0.47505045 0.26398906 0.17700683 1.1405026 -0.004044685 -0.9154133 -0.9583735 -1.1394341 -0.17564821 0.6607012 -0.10007932 0.87047905 -0.2694922 0.08928653
CL:1001287 0.4399102 -0.86015207 -0.15661883 -0.16591246 -0.98964095 -0.81824565 0.67175525 0.3557498 -0.05703191 -1.0697492 0.6670783 -0.05324701 0.035529073 -0.14663795 0.039717644 0.64291364 -0.6166802 0.31741223 0.15516861 1.0384469 0.6332373 1.2504568 -0.52520704 -0.80690104 0.102072164 -0.03939563 -0.1538092 0.38779256 0.8603103 0.26259574 0.7310579 -0.28909728 -0.044837084 -0.3694133 -0.4023871 0.7200635 0.13243221 0.13802277 0.050015613 -0.085074335 0.065036416 0.7895971 -0.10017113 0.53347546 1.3236165 0.23639874 -0.5521957 -0.31552705 0.86867315 0.5698863 0.3648501 0.5863728 0.39288694 0.68838567 -0.8473712 -0.38164166 0.29932097 -0.6531753 -0.1843971 -0.13377179 -0.34514755 -0.6657525 0.048019327 -0.4787116
CL:1001217 0.17327422 -0.21294981 0.15776089 -0.046970546 -0.3702679 -0.9021697 -0.43169412 0.80584127 -0.6872598 0.1364794 1.1585116 0.06131483 0.16430797 -0.96503323 -0.23728748 0.6350731 -0.25828263 -1.0335546 -0.027912535 0.7885927 0.8048236 0.14417456 0.54967916 -1.7177515 0.025698287 1.6267532 0.04034163 -0.34864444 -0.31509995 -1.174372 -0.1222366 -0.15876798 -0.0012646914 -0.80184186 -0.34594792 1.5150347 0.9279241 0.043974526 0.601829 -0.35482106 -0.36410478 0.5166719 -0.819643 0.27461222 1.32561 -0.0064417184 -0.4035511 -0.741997 0.2793579 0.5339117 0.6533602 0.5957717 0.21700561 0.4734043 -1.057893 0.086158104 0.3900584 -0.31370112 -0.2681513 0.53442 -0.41956863 -0.71534663 0.375515 -0.8200899
CL:0000247 0.92545027 -0.8112524 1.2932949 0.410869 -0.54692304 -0.32539096 0.051576264 0.63748497 -1.1938652 0.2756544 0.1717221 -0.52702457 -0.79015577 0.023270236 -0.2342198 0.6705444 -0.4435676 0.4427988 -0.07603253 0.48141882 0.7759667 1.649683 0.51458 -1.2032112 0.09696767 0.34913567 0.34859452 0.6526775 0.022079842 -0.45973885 -0.037867382 -0.34482202 0.6335501 -1.002924 -0.53557086 0.48851448 0.39394712 -0.09565703 0.8906935 0.27897263 -0.011094299 -0.13856143 0.6453147 -0.6689771 0.61365384 0.39770463 -0.597026 0.1858302 -0.03149048 0.3307623 0.42443067 -0.08310144 0.69242036 -0.5013169 0.034360398 -0.08047263 0.74595624 -0.6287642 -0.31763273 -0.25531703 -0.55129224 -0.18169007 0.07248471 0.21877217
CL:0000716 0.48252228 -0.2509601 0.5645444 -0.07917002 -0.4815541 -1.8491156 0.65307766 0.4362604 -1.0757564 -0.099528685 0.26013738 -0.91115034 -0.32175326 -0.0612232 0.45314345 0.22764267 -0.30940652 0.45920402 -0.41578832 1.0610563 0.67223907 0.5349223 0.09534906 -0.84667516 0.42712674 0.07533747 0.3543214 0.5276785 0.053618092 -0.009484127 -0.31420457 0.12983724 -0.20162512 -0.7009556 -0.36423945 0.30458283 0.88246185 0.43675515 0.034928914 -0.7704367 0.14140472 1.5158341 -0.014985191 0.92006814 0.53818935 0.24392082 0.13077234 -0.3511198 0.19519885 0.43944433 0.08802712 0.03910359 0.52620137 -0.08970888 0.26619098 -1.0925018 0.21126972 -0.26067555 -0.6179435 0.03744784 -0.36231092 0.20388232 -0.44938642 0.32482976
CL:0002053 -0.62078595 -0.50421536 0.9158797 0.063201845 0.35879606 -1.1089866 1.0787733 -0.3288984 -0.22017421 -0.63350445 0.5419372 0.18904151 -0.44645587 -0.289816 0.49231666 0.46365342 -0.6518365 -0.787055 -0.5404457 0.7612172 1.2353797 0.32188657 -0.55330896 -0.561189 0.676413 0.72100097 -0.42269495 0.3941771 0.0511017 -0.55032444 0.21082512 -0.26274878 -0.07228064 -0.6948712 -0.08063233 -5.919026e-05 0.098596744 -0.17644744 1.6671964 0.38731906 -0.28174603 -0.2360742 0.23962273 0.052664176 0.2771683 -0.740491 -1.1109575 0.3950109 -0.2514793 -0.2197469 0.38584825 0.5992645 0.014283628 0.5900088 -0.4213387 -0.09358515 -0.29136258 -0.5951498 -0.7848647 -0.09882985 -0.83927304 0.23431636 -0.07177959 0.16473815
CL:0002115 0.9804645 -0.31824157 0.91941184 0.57380426 -0.318897 -1.0478526 0.3482744 0.46726045 -0.9302092 -0.121281125 0.20511924 -0.8042819 -0.67240524 -0.4869529 0.7675314 0.9326753 -0.7637855 0.26724228 0.37303486 1.569658 1.0376408 0.38042006 0.743647 -0.35448146 -0.23320553 1.1154053 0.06539869 0.3932178 -0.0638552 0.04695593 0.927496 0.48484918 -0.9920008 -0.5178178 -0.08488443 0.29568794 1.7323959 -0.30160147 0.75825626 0.556489 -0.7593712 1.1660659 0.14847541 -0.034291405 0.23797311 -0.40196893 -0.12846425 0.48972002 0.5285132 0.89414334 0.20579484 -0.5005297 0.7879441 -0.21359622 -0.5809412 -0.40785375 0.4674425 -0.24317962 -0.20695515 -0.33181578 -0.40041992 -0.2898795 1.1568302 -0.87308073
CL:0000592 -0.57460505 0.3036209 1.0785941 0.37723857 -0.59449875 -0.52196723 0.06979792 0.21712956 -0.33580568 -0.21480526 0.7958085 -0.43326232 0.3305452 0.020227477 0.4728137 1.0848496 0.44767877 -0.44226506 0.047912374 0.21691892 0.5768918 1.0272343 0.0982504 -0.33570084 0.2974437 0.8131986 0.48256466 0.753844 -0.2825082 0.69048774 -0.30035034 0.32565412 -0.088506155 -1.1571834 -0.61798793 0.24272992 0.13036442 -0.24838507 -0.099715136 0.2882417 0.42558753 0.53768164 1.0239909 0.51549727 0.64706004 0.73220754 -0.48203182 0.13699804 0.27278864 0.81734806 0.52139115 0.2723582 -0.020796 1.0276171 0.65636957 -0.46838677 -0.10457481 0.10068767 -0.384848 1.0931185 -1.009399 0.54098 -0.18117009 -0.25956202
CL:1001209 0.48906207 -0.82145 -0.1642519 -0.28457478 -1.0789979 -0.7047117 0.7222203 0.22845572 -0.11441195 -0.9456732 0.7572228 -0.12639688 -0.056945153 -0.08378585 0.016717155 0.84341085 -0.67105395 0.4954419 0.16236924 1.0703125 0.6317878 1.175288 -0.52246493 -0.8238671 0.10862447 -0.005869838 -0.21915913 0.41442108 0.8703887 0.19685186 0.5239894 -0.4156723 -0.11485273 -0.24452357 -0.6485106 0.6262877 -0.050282937 0.1481092 0.011954193 0.0041777 0.13388094 0.811461 -0.11861729 0.6491406 1.3532137 0.13131821 -0.6080281 -0.27595425 0.7676493 0.6737196 0.33094835 0.6900078 0.39925402 0.7600136 -0.6751784 -0.2783632 0.23666489 -0.56786513 -0.3078091 0.02020331 -0.50252736 -0.54898435 0.09078888 -0.55839074
CL:1001224 -0.23106521 -0.49954504 0.26247123 -0.0449465 -0.70489204 -0.26140562 0.5499715 -0.44475856 -0.27555436 -0.8847766 0.627155 -0.24697019 0.49991253 -0.1409886 0.47272956 0.26071623 -0.7013276 -0.4172053 -0.64503634 0.5878429 0.5757687 0.8392265 0.17368576 -0.8100077 -0.7193631 1.1816076 0.13246226 -0.5571923 0.43411908 -0.13298276 0.13348205 -0.36069503 0.4706628 -0.91097593 -0.46359587 0.8367369 0.33835357 0.45981938 0.1774966 -0.55033875 -0.45873013 0.5734068 -0.0089477105 0.852273 1.5318636 0.087045 -0.5777048 -0.76105684 0.5262423 -0.16280472 -0.04769064 0.68249154 0.2554115 0.7565579 -0.92895865 -0.27262938 0.1967923 -0.6411199 -0.11985897 0.43027043 -0.49253237 -0.4070746 -0.24685237 -0.78093165
CL:0005024 0.47829792 -0.7553301 0.37025335 1.03625 -0.9083887 -0.30046603 1.1037266 -0.4008288 -0.90667117 -0.4039597 1.0212848 0.27140766 -0.3898103 0.14287747 -0.14921445 1.4425546 -0.6052264 -0.8388696 -0.3235122 0.79353637 0.9204399 0.7400569 0.42079186 -0.4903879 0.75840616 0.74086255 0.13540596 -0.6038679 0.40890223 -1.194238 0.92352897 0.1484776 -0.1320913 -0.35005534 -0.7438356 0.9791637 -0.18362354 0.6034686 0.11110294 0.5721092 0.11089733 0.59978235 0.7953229 -0.44791165 -0.35921153 0.52488333 -0.49390534 -0.38449484 0.9384497 0.3073987 0.76404315 0.37818128 0.70397407 0.8732736 -0.35037097 -1.2053938 0.21915565 -0.3995329 -1.035084 -0.08793744 -0.40883493 0.068648 0.32392383 0.110367596
CL:0002390 0.27877975 -0.01879924 0.4933536 0.5917187 -0.2217083 -0.22439095 0.07659907 -0.93427587 -0.58125424 0.022184456 1.4685478 -0.25610453 0.07454625 0.04212433 -0.27803782 0.9637922 -1.2288959 -0.03483188 -0.406165 0.50332737 0.25257492 0.46514124 0.037195425 -0.81029683 -0.4422353 -0.011294951 -0.85582465 0.93155056 -0.2020799 -0.22110514 0.20689273 0.11276121 0.1849221 -0.27491802 -0.6070209 0.71642125 0.45553276 0.9871795 0.47385484 0.136667 -0.40848556 0.3473691 0.5180402 -0.073657624 0.3397671 -0.15651935 -1.2652307 -0.040747523 0.89898026 0.024874903 0.94002557 -0.47303486 0.1272806 1.2265363 -0.05701629 -0.15828045 -0.3532901 -0.25397527 -0.70679957 0.9629797 -0.15226682 0.18447289 -0.025870824 -0.38143113
CL:0002082 0.08819876 -0.00861652 1.2656844 -0.039347142 -0.40444204 -0.85113555 1.1755073 0.7578492 -1.0316696 -0.6269539 0.64683205 -0.26014864 0.013779518 0.2629518 0.9101421 1.4086648 -0.04417816 -0.2855058 -0.1940261 0.8856222 0.3559309 0.36526415 -0.3257673 -0.010259856 -0.28860775 0.9962978 -0.40712175 0.5993971 0.5472151 -0.13050252 0.5493072 0.22140026 -0.18232606 -0.7612939 -0.7904842 0.8508719 -0.1524911 -0.34690487 -0.18126749 -0.11694017 -0.5107665 1.1339298 0.18755215 0.123395674 0.17738256 0.30349582 -0.15073887 -0.39027703 0.2451614 -0.114224724 -0.014091285 0.07775348 -0.08926215 -0.45443547 -0.31149575 -0.0925531 -0.45694956 -0.8962809 -1.1351098 -0.07147563 0.6610861 -0.3644123 0.060087565 0.03130532
CL:0000612 1.1593851 0.002391944 0.83383626 0.54711336 -0.020090379 -0.41441202 0.68344516 -0.21198581 -0.68082976 -0.5346421 0.29720122 0.10734315 0.7003295 -0.47604644 0.077882394 1.1830064 -0.96439236 -0.028911995 0.16090387 0.32669327 -0.19038796 1.0119824 -0.7547707 -0.604761 0.6749199 0.53392684 0.19526698 0.98888 0.40066782 0.15376906 -0.045336805 -0.01601876 -0.31006482 -1.2136015 0.4505944 -0.38340092 0.43377203 -0.35520095 0.03604588 -0.06881296 -0.48627064 -0.21301101 0.75945586 0.18414234 0.23839119 -0.35357973 -0.32126212 -0.5030872 0.47517577 0.19986871 0.6105959 -0.3496791 -0.09769129 0.9014646 -0.430042 -0.20334008 0.46398723 -0.7710168 -0.5383571 0.8764142 -1.0819025 0.13921666 0.3993254 0.07826299
CL:0002188 0.9892829 -0.3196631 0.5295451 -0.21856412 -1.0323988 -0.72392124 0.21953988 -0.2566241 0.14279248 -0.32197097 0.44583842 -0.16230744 -0.18570362 -0.6847321 0.36706665 0.35286683 -0.83694834 -0.7783282 -0.725329 1.2704492 1.4457474 0.66881156 0.044378508 -0.92309797 -0.5842066 0.11288075 -0.65307564 0.58841074 0.4919831 0.56239206 -0.184804 -0.36764878 -0.16775961 -0.6354839 -0.6620469 0.8354208 1.0406905 -0.010091807 0.11095399 -0.17834471 0.5317448 0.97408193 0.007920686 -0.2812774 -0.22880194 0.97965837 0.3913724 -0.67528665 0.844108 0.32838693 0.64225626 -0.15467934 0.25756735 1.0280511 0.2870663 -0.7455268 0.09867157 -1.4545188 -1.1635691 -0.27520317 -0.25437203 -0.7050378 0.19996104 -0.66387856
CL:0002623 0.6390176 -0.5881773 1.3605857 1.1168944 -0.53669506 -0.42846885 0.34192446 1.1343915 0.5320414 -0.64722055 1.0617002 -0.23821382 -0.10969142 -0.24443655 0.011732123 0.47300223 -0.8122748 -0.23096965 -0.16918921 -0.587412 0.053789776 1.1350794 0.25911537 -0.08337339 -0.4136922 0.776849 -0.05590195 -0.33857 0.28619057 -0.95060045 -0.06045097 -0.16675647 0.43140033 -0.5399272 -0.48234522 -0.14049435 1.2087235 -0.31088442 -0.16087337 -0.03292847 -0.111265115 0.2873545 0.6605344 0.39650872 0.41728526 0.084914476 -0.8075109 -0.23903851 0.30736724 0.003111803 -0.43701458 0.8960264 -0.08298801 -0.16870695 0.49517524 0.21765648 0.38066518 0.0001101832 -0.5736226 0.6417974 -0.17139111 0.3250796 0.16095959 -0.18407877
CL:0000171 0.6896008 -0.5756515 0.6542278 0.49760368 -0.409169 0.026602916 0.7957067 1.1413852 -0.11537041 -0.5159541 0.8438077 -0.33135045 0.56099045 -0.7995568 0.4343186 0.8399192 0.565764 -0.3401024 -1.4113413 0.73925275 0.26111642 0.64892167 0.2755839 -0.049035445 0.17886199 0.40472746 0.45415282 0.5885628 0.39674488 0.5194485 0.27195653 -0.16546866 0.26831076 0.0053833327 -0.74052113 -0.1951734 0.7556053 -0.49501017 0.10085696 -0.20355281 -0.3262267 0.38320395 0.36751428 0.25106087 0.5413313 -0.4671068 0.30051428 0.2557909 0.44349483 0.07960986 0.20756985 0.1918894 0.082936585 0.7723696 0.19443832 -0.6686022 -0.589528 -0.8291308 -0.91032857 0.90652657 -0.8637295 0.5028247 0.46949562 -0.3624612
CL:0000169 1.2202343 -0.14773095 -0.017302768 0.9924516 -0.6168481 0.16736284 0.6100965 0.37063637 0.2520136 0.025447922 0.40976644 -0.17069387 0.41584483 -0.7852014 0.3942318 0.23405166 0.49406612 -0.61312914 -1.0788265 0.1977241 0.42596102 1.1510872 0.5817725 -0.08433747 -0.85603243 0.6030926 0.3122334 0.56044436 -0.15823139 0.029724725 -0.116832785 -0.4288028 -0.38446668 -0.2506532 -0.16456734 0.17957431 0.13290645 -0.7171318 0.18712574 0.4898164 0.09030595 0.64840686 0.054721795 0.15345353 0.49982813 -0.10333017 -0.15426432 -0.0011974202 0.5181445 0.24767195 -0.43235865 0.6867765 -0.31609157 0.99377334 0.414784 -0.9813204 0.18662982 -0.36518636 -1.1037408 1.032971 -0.044173863 0.10860219 -0.355064 -0.027898347
CL:0002037 0.27065438 -0.54077965 0.4586181 1.114533 -0.24104449 -0.9624682 0.57308114 -0.33306608 0.05889625 -0.7017221 0.8370729 -0.35627413 0.41797024 -1.2251949 0.9557875 0.6870396 0.21380791 -0.03136509 0.020254925 -0.2667815 0.78702277 0.79529387 0.27606344 -1.3546997 -0.39039186 0.87457466 -0.452923 0.45123744 0.63506836 -0.26863286 -0.29837766 0.06975168 -0.2771138 -0.8941522 -0.025212074 0.05298613 0.77022076 -0.4780695 -0.32460594 0.28992975 -0.40594476 -0.08313455 -0.38852596 0.16368091 0.034112923 -0.425493 -0.92059976 0.05252485 0.65312445 0.56350595 -0.073224716 -0.35610166 -0.1850553 0.4565908 -0.24205783 -0.4275137 -0.3643049 -0.6730852 -1.1771855 -0.5682785 0.060771894 -0.005150228 0.9913847 0.14672732
